{"learner":{"attributes":{"scikit_learn":"{\"_estimator_type\": \"regressor\"}"},"feature_names":[],"feature_types":[],"gradient_booster":{"model":{"cats":{"enc":[],"feature_segments":[],"sorted_idx":[]},"gbtree_model_param":{"num_parallel_tree":"1","num_trees":"270"},"iteration_indptr":[0,1,2,3,4,5,6,7,8,9,10,11,12,13,14,15,16,17,18,19,20,21,22,23,24,25,26,27,28,29,30,31,32,33,34,35,36,37,38,39,40,41,42,43,44,45,46,47,48,49,50,51,52,53,54,55,56,57,58,59,60,61,62,63,64,65,66,67,68,69,70,71,72,73,74,75,76,77,78,79,80,81,82,83,84,85,86,87,88,89,90,91,92,93,94,95,96,97,98,99,100,101,102,103,104,105,106,107,108,109,110,111,112,113,114,115,116,117,118,119,120,121,122,123,124,125,126,127,128,129,130,131,132,133,134,135,136,137,138,139,140,141,142,143,144,145,146,147,148,149,150,151,152,153,154,155,156,157,158,159,160,161,162,163,164,165,166,167,168,169,170,171,172,173,174,175,176,177,178,179,180,181,182,183,184,185,186,187,188,189,190,191,192,193,194,195,196,197,198,199,200,201,202,203,204,205,206,207,208,209,210,211,212,213,214,215,216,217,218,219,220,221,222,223,224,225,226,227,228,229,230,231,232,233,234,235,236,237,238,239,240,241,242,243,244,245,246,247,248,249,250,251,252,253,254,255,256,257,258,259,260,261,262,263,264,265,266,267,268,269,270],"tree_info":[0,0,0,0,0,0,0,0,0,0,0,0,0,0,0,0,0,0,0,0,0,0,0,0,0,0,0,0,0,0,0,0,0,0,0,0,0,0,0,0,0,0,0,0,0,0,0,0,0,0,0,0,0,0,0,0,0,0,0,0,0,0,0,0,0,0,0,0,0,0,0,0,0,0,0,0,0,0,0,0,0,0,0,0,0,0,0,0,0,0,0,0,0,0,0,0,0,0,0,0,0,0,0,0,0,0,0,0,0,0,0,0,0,0,0,0,0,0,0,0,0,0,0,0,0,0,0,0,0,0,0,0,0,0,0,0,0,0,0,0,0,0,0,0,0,0,0,0,0,0,0,0,0,0,0,0,0,0,0,0,0,0,0,0,0,0,0,0,0,0,0,0,0,0,0,0,0,0,0,0,0,0,0,0,0,0,0,0,0,0,0,0,0,0,0,0,0,0,0,0,0,0,0,0,0,0,0,0,0,0,0,0,0,0,0,0,0,0,0,0,0,0,0,0,0,0,0,0,0,0,0,0,0,0,0,0,0,0,0,0,0,0,0,0,0,0,0,0,0,0,0,0,0,0,0,0,0,0,0,0,0,0,0,0,0,0,0,0,0,0],"trees":[{"base_weights":[-1.8236989E-7,-1.4279646E0,4.084369E0,-2.2704499E0,-3.6173734E-1,2.8137977E0,6.1062603E0,-8.547431E-2,-6.20936E-2,-2.307644E-2,1.561797E-2,6.180537E-2,1.0566832E-1,1.6902852E-1,2.4091904E-1],"categories":[],"categories_nodes":[],"categories_segments":[],"categories_sizes":[],"default_left":[0,0,0,0,0,0,0,0,0,0,0,0,0,0,0],"id":0,"left_children":[1,3,5,7,9,11,13,-1,-1,-1,-1,-1,-1,-1,-1],"loss_changes":[8.217759E3,9.369839E2,9.204873E2,6.940283E1,1.556358E2,1.0542151E2,1.0612109E2,0E0,0E0,0E0,0E0,0E0,0E0,0E0,0E0],"parents":[2147483647,0,0,1,1,2,2,3,3,4,4,5,5,6,6],"right_children":[2,4,6,8,10,12,14,-1,-1,-1,-1,-1,-1,-1,-1],"split_conditions":[8.312223E0,5.5254984E0,1.1586821E1,4.4498906E0,6.9723854E0,9.645902E0,1.43692255E1,-8.547431E-2,-6.20936E-2,-2.307644E-2,1.561797E-2,6.180537E-2,1.0566832E-1,1.6902852E-1,2.4091904E-1],"split_indices":[6,6,6,6,6,6,6,0,0,0,0,0,0,0,0],"split_type":[0,0,0,0,0,0,0,0,0,0,0,0,0,0,0],"sum_hessian":[1.407E3,1.043E3,3.64E2,5.82E2,4.61E2,2.25E2,1.39E2,1.93E2,3.89E2,3.19E2,1.42E2,9.9E1,1.26E2,1.05E2,3.4E1],"tree_param":{"num_deleted":"0","num_feature":"8","num_nodes":"15","size_leaf_vector":"1"}},{"base_weights":[2.9991975E-4,-1.3840998E0,3.9600618E0,-2.2007227E0,-3.5060385E-1,2.5651662E0,5.692152E0,-8.285338E-2,-6.018464E-2,-2.2724995E-2,1.4383201E-2,5.991945E-2,9.654414E-2,1.5621668E-1,2.2838086E-1],"categories":[],"categories_nodes":[],"categories_segments":[],"categories_sizes":[],"default_left":[0,0,0,0,0,0,0,0,0,0,0,0,0,0,0],"id":1,"left_children":[1,3,5,7,9,11,13,-1,-1,-1,-1,-1,-1,-1,-1],"loss_changes":[7.7239873E3,8.8033984E2,8.6726953E2,6.524292E1,1.4634671E2,6.5771484E1,1.3601562E2,0E0,0E0,0E0,0E0,0E0,0E0,0E0,0E0],"parents":[2147483647,0,0,1,1,2,2,3,3,4,4,5,5,6,6],"right_children":[2,4,6,8,10,12,14,-1,-1,-1,-1,-1,-1,-1,-1],"split_conditions":[8.312223E0,5.5254984E0,1.12734165E1,4.4498906E0,6.9504666E0,9.645902E0,1.4019403E1,-8.285338E-2,-6.018464E-2,-2.2724995E-2,1.4383201E-2,5.991945E-2,9.654414E-2,1.5621668E-1,2.2838086E-1],"split_indices":[6,6,6,6,6,6,6,0,0,0,0,0,0,0,0],"split_type":[0,0,0,0,0,0,0,0,0,0,0,0,0,0,0],"sum_hessian":[1.407E3,1.043E3,3.64E2,5.82E2,4.61E2,2.03E2,1.61E2,1.93E2,3.89E2,3.13E2,1.48E2,9.9E1,1.04E2,1.21E2,4E1],"tree_param":{"num_deleted":"0","num_feature":"8","num_nodes":"15","size_leaf_vector":"1"}},{"base_weights":[5.6740915E-4,-1.3415838E0,3.8394864E0,-2.075215E0,-2.5964472E-1,2.6419291E0,5.7452607E0,-7.390165E-2,-5.1638644E-2,-1.768786E-2,1.9716296E-2,6.710534E-2,1.1113722E-1,1.5897241E-1,2.2686745E-1],"categories":[],"categories_nodes":[],"categories_segments":[],"categories_sizes":[],"default_left":[0,0,0,0,0,0,0,0,0,0,0,0,0,0,0],"id":2,"left_children":[1,3,5,7,9,11,13,-1,-1,-1,-1,-1,-1,-1,-1],"loss_changes":[7.259744E3,8.2813025E2,8.1785156E2,7.617969E1,1.1990155E2,9.338428E1,9.490039E1,0E0,0E0,0E0,0E0,0E0,0E0,0E0,0E0],"parents":[2147483647,0,0,1,1,2,2,3,3,4,4,5,5,6,6],"right_children":[2,4,6,8,10,12,14,-1,-1,-1,-1,-1,-1,-1,-1],"split_conditions":[8.312223E0,5.7261305E0,1.1586821E1,4.8353453E0,7.1535516E0,1.0418147E1,1.43692255E1,-7.390165E-2,-5.1638644E-2,-1.768786E-2,1.9716296E-2,6.710534E-2,1.1113722E-1,1.5897241E-1,2.2686745E-1],"split_indices":[6,6,6,6,6,6,6,0,0,0,0,0,0,0,0],"split_type":[0,0,0,0,0,0,0,0,0,0,0,0,0,0,0],"sum_hessian":[1.407E3,1.043E3,3.64E2,6.21E2,4.22E2,2.25E2,1.39E2,3.41E2,2.8E2,3.13E2,1.09E2,1.54E2,7.1E1,1.05E2,3.4E1],"tree_param":{"num_deleted":"0","num_feature":"8","num_nodes":"15","size_leaf_vector":"1"}},{"base_weights":[8.628091E-4,-1.3003516E0,3.7226903E0,-2.0685651E0,-3.2812476E-1,2.5612876E0,5.5709352E0,-7.804675E-2,-5.6486435E-2,-2.1353375E-2,1.364099E-2,5.6043416E-2,9.6355364E-2,1.5224302E-1,2.1499759E-1],"categories":[],"categories_nodes":[],"categories_segments":[],"categories_sizes":[],"default_left":[0,0,0,0,0,0,0,0,0,0,0,0,0,0,0],"id":3,"left_children":[1,3,5,7,9,11,13,-1,-1,-1,-1,-1,-1,-1,-1],"loss_changes":[6.8236377E3,7.7906177E2,7.692246E2,5.9120605E1,1.3015025E2,8.916992E1,8.972363E1,0E0,0E0,0E0,0E0,0E0,0E0,0E0,0E0],"parents":[2147483647,0,0,1,1,2,2,3,3,4,4,5,5,6,6],"right_children":[2,4,6,8,10,12,14,-1,-1,-1,-1,-1,-1,-1,-1],"split_conditions":[8.312223E0,5.5254984E0,1.1586821E1,4.4498906E0,6.9504666E0,9.645902E0,1.4019403E1,-7.804675E-2,-5.6486435E-2,-2.1353375E-2,1.364099E-2,5.6043416E-2,9.6355364E-2,1.5224302E-1,2.1499759E-1],"split_indices":[6,6,6,6,6,6,6,0,0,0,0,0,0,0,0],"split_type":[0,0,0,0,0,0,0,0,0,0,0,0,0,0,0],"sum_hessian":[1.407E3,1.043E3,3.64E2,5.82E2,4.61E2,2.25E2,1.39E2,1.93E2,3.89E2,3.13E2,1.48E2,9.9E1,1.26E2,9.9E1,4E1],"tree_param":{"num_deleted":"0","num_feature":"8","num_nodes":"15","size_leaf_vector":"1"}},{"base_weights":[1.1042492E-3,-1.2604082E0,3.6093721E0,-1.9505715E0,-2.425782E-1,2.3331964E0,5.1941285E0,-7.565357E-2,-5.2956723E-2,-1.5172859E-2,2.4232037E-2,5.4333303E-2,8.7973185E-2,1.4250399E-1,2.085325E-1],"categories":[],"categories_nodes":[],"categories_segments":[],"categories_sizes":[],"default_left":[0,0,0,0,0,0,0,0,0,0,0,0,0,0,0],"id":4,"left_children":[1,3,5,7,9,11,13,-1,-1,-1,-1,-1,-1,-1,-1],"loss_changes":[6.413589E3,7.329044E2,7.260664E2,6.8640625E1,1.0904492E2,5.5595093E1,1.14015625E2,0E0,0E0,0E0,0E0,0E0,0E0,0E0,0E0],"parents":[2147483647,0,0,1,1,2,2,3,3,4,4,5,5,6,6],"right_children":[2,4,6,8,10,12,14,-1,-1,-1,-1,-1,-1,-1,-1],"split_conditions":[8.312223E0,5.7261305E0,1.12734165E1,4.4498906E0,7.377446E0,9.645902E0,1.4019403E1,-7.565357E-2,-5.2956723E-2,-1.5172859E-2,2.4232037E-2,5.4333303E-2,8.7973185E-2,1.4250399E-1,2.085325E-1],"split_indices":[6,6,6,6,6,6,6,0,0,0,0,0,0,0,0],"split_type":[0,0,0,0,0,0,0,0,0,0,0,0,0,0,0],"sum_hessian":[1.407E3,1.043E3,3.64E2,6.21E2,4.22E2,2.03E2,1.61E2,1.93E2,4.28E2,3.4E2,8.2E1,9.9E1,1.04E2,1.21E2,4E1],"tree_param":{"num_deleted":"0","num_feature":"8","num_nodes":"15","size_leaf_vector":"1"}},{"base_weights":[1.3356734E-3,-1.2216741E0,3.499475E0,-1.9446585E0,-3.0669227E-1,2.4048612E0,5.241498E0,-7.3333785E-2,-5.31218E-2,-2.2515887E-2,8.870639E-3,6.086143E-2,1.0164322E-1,1.4634056E-1,2.1246138E-1],"categories":[],"categories_nodes":[],"categories_segments":[],"categories_sizes":[],"default_left":[0,0,0,0,0,0,0,0,0,0,0,0,0,0,0],"id":5,"left_children":[1,3,5,7,9,11,13,-1,-1,-1,-1,-1,-1,-1,-1],"loss_changes":[6.028063E3,6.900281E2,6.833926E2,5.193579E1,1.1661366E2,8.0310425E1,8.140747E1,0E0,0E0,0E0,0E0,0E0,0E0,0E0,0E0],"parents":[2147483647,0,0,1,1,2,2,3,3,4,4,5,5,6,6],"right_children":[2,4,6,8,10,12,14,-1,-1,-1,-1,-1,-1,-1,-1],"split_conditions":[8.312223E0,5.5254984E0,1.1586821E1,4.4498906E0,6.718534E0,1.0418147E1,1.4627596E1,-7.3333785E-2,-5.31218E-2,-2.2515887E-2,8.870639E-3,6.086143E-2,1.0164322E-1,1.4634056E-1,2.1246138E-1],"split_indices":[6,6,6,6,6,6,6,0,0,0,0,0,0,0,0],"split_type":[0,0,0,0,0,0,0,0,0,0,0,0,0,0,0],"sum_hessian":[1.407E3,1.043E3,3.64E2,5.82E2,4.61E2,2.25E2,1.39E2,1.93E2,3.89E2,2.69E2,1.92E2,1.54E2,7.1E1,1.1E2,2.9E1],"tree_param":{"num_deleted":"0","num_feature":"8","num_nodes":"15","size_leaf_vector":"1"}},{"base_weights":[1.5651621E-3,-1.1841537E0,3.3930416E0,-1.8332686E0,-2.2686362E-1,2.1916208E0,4.884997E0,-6.392057E-2,-4.2761527E-2,-1.4061726E-2,2.445583E-2,5.081825E-2,8.284287E-2,1.3392256E-1,1.9641979E-1],"categories":[],"categories_nodes":[],"categories_segments":[],"categories_sizes":[],"default_left":[0,0,0,0,0,0,0,0,0,0,0,0,0,0,0],"id":6,"left_children":[1,3,5,7,9,11,13,-1,-1,-1,-1,-1,-1,-1,-1],"loss_changes":[5.666061E3,6.483165E2,6.4354395E2,6.384839E1,9.935051E1,5.0513916E1,1.02451416E2,0E0,0E0,0E0,0E0,0E0,0E0,0E0,0E0],"parents":[2147483647,0,0,1,1,2,2,3,3,4,4,5,5,6,6],"right_children":[2,4,6,8,10,12,14,-1,-1,-1,-1,-1,-1,-1,-1],"split_conditions":[8.312223E0,5.7261305E0,1.12734165E1,4.99739E0,7.3956785E0,9.645902E0,1.4019403E1,-6.392057E-2,-4.2761527E-2,-1.4061726E-2,2.445583E-2,5.081825E-2,8.284287E-2,1.3392256E-1,1.9641979E-1],"split_indices":[6,6,6,6,6,6,6,0,0,0,0,0,0,0,0],"split_type":[0,0,0,0,0,0,0,0,0,0,0,0,0,0,0],"sum_hessian":[1.407E3,1.043E3,3.64E2,6.21E2,4.22E2,2.03E2,1.61E2,4.01E2,2.2E2,3.45E2,7.7E1,9.9E1,1.04E2,1.21E2,4E1],"tree_param":{"num_deleted":"0","num_feature":"8","num_nodes":"15","size_leaf_vector":"1"}},{"base_weights":[1.7780949E-3,-1.1583885E0,3.2596464E0,-1.8276951E0,-3.0201164E-1,2.232179E0,4.9316845E0,-7.7068806E-2,-5.219011E-2,-2.1264886E-2,7.912008E-3,4.8482284E-2,8.505766E-2,1.3758919E-1,2.0027885E-1],"categories":[],"categories_nodes":[],"categories_segments":[],"categories_sizes":[],"default_left":[0,0,0,0,0,0,0,0,0,0,0,0,0,0,0],"id":7,"left_children":[1,3,5,7,9,11,13,-1,-1,-1,-1,-1,-1,-1,-1],"loss_changes":[5.325551E3,5.9498083E2,6.246387E2,4.849121E1,9.922206E1,7.597717E1,7.3549805E1,0E0,0E0,0E0,0E0,0E0,0E0,0E0,0E0],"parents":[2147483647,0,0,1,1,2,2,3,3,4,4,5,5,6,6],"right_children":[2,4,6,8,10,12,14,-1,-1,-1,-1,-1,-1,-1,-1],"split_conditions":[8.243531E0,5.5254984E0,1.1586821E1,4.1318126E0,6.718534E0,9.645902E0,1.4627596E1,-7.7068806E-2,-5.219011E-2,-2.1264886E-2,7.912008E-3,4.8482284E-2,8.505766E-2,1.3758919E-1,2.0027885E-1],"split_indices":[6,6,6,6,6,6,6,0,0,0,0,0,0,0,0],"split_type":[0,0,0,0,0,0,0,0,0,0,0,0,0,0,0],"sum_hessian":[1.407E3,1.038E3,3.69E2,5.82E2,4.56E2,2.3E2,1.39E2,9.4E1,4.88E2,2.69E2,1.87E2,1.04E2,1.26E2,1.1E2,2.9E1],"tree_param":{"num_deleted":"0","num_feature":"8","num_nodes":"15","size_leaf_vector":"1"}},{"base_weights":[1.9568384E-3,-1.1125833E0,3.1898415E0,-1.7230078E0,-2.1235482E-1,2.0578344E0,4.5956416E0,-6.017137E-2,-4.001636E-2,-1.3274919E-2,2.3390803E-2,4.7788184E-2,7.771709E-2,1.2591454E-1,1.8500929E-1],"categories":[],"categories_nodes":[],"categories_segments":[],"categories_sizes":[],"default_left":[0,0,0,0,0,0,0,0,0,0,0,0,0,0,0],"id":8,"left_children":[1,3,5,7,9,11,13,-1,-1,-1,-1,-1,-1,-1,-1],"loss_changes":[5.0062085E3,5.733346E2,5.713948E2,5.8013428E1,9.002862E1,4.407959E1,9.181421E1,0E0,0E0,0E0,0E0,0E0,0E0,0E0,0E0],"parents":[2147483647,0,0,1,1,2,2,3,3,4,4,5,5,6,6],"right_children":[2,4,6,8,10,12,14,-1,-1,-1,-1,-1,-1,-1,-1],"split_conditions":[8.312223E0,5.7261305E0,1.12734165E1,4.99739E0,7.3956785E0,9.645902E0,1.4019403E1,-6.017137E-2,-4.001636E-2,-1.3274919E-2,2.3390803E-2,4.7788184E-2,7.771709E-2,1.2591454E-1,1.8500929E-1],"split_indices":[6,6,6,6,6,6,6,0,0,0,0,0,0,0,0],"split_type":[0,0,0,0,0,0,0,0,0,0,0,0,0,0,0],"sum_hessian":[1.407E3,1.043E3,3.64E2,6.21E2,4.22E2,2.03E2,1.61E2,4.01E2,2.2E2,3.45E2,7.7E1,9.9E1,1.04E2,1.21E2,4E1],"tree_param":{"num_deleted":"0","num_feature":"8","num_nodes":"15","size_leaf_vector":"1"}},{"base_weights":[2.1426047E-3,-1.0783771E0,3.0927193E0,-1.7177722E0,-2.6918727E-1,2.1204226E0,4.640193E0,-7.288328E-2,-4.8963897E-2,-1.6124843E-2,1.6898902E-2,5.3415682E-2,9.0153545E-2,1.2936008E-1,1.8879925E-1],"categories":[],"categories_nodes":[],"categories_segments":[],"categories_sizes":[],"default_left":[0,0,0,0,0,0,0,0,0,0,0,0,0,0,0],"id":9,"left_children":[1,3,5,7,9,11,13,-1,-1,-1,-1,-1,-1,-1,-1],"loss_changes":[4.7052515E3,5.396948E2,5.3934106E2,4.496045E1,9.620217E1,6.536902E1,6.6451416E1,0E0,0E0,0E0,0E0,0E0,0E0,0E0,0E0],"parents":[2147483647,0,0,1,1,2,2,3,3,4,4,5,5,6,6],"right_children":[2,4,6,8,10,12,14,-1,-1,-1,-1,-1,-1,-1,-1],"split_conditions":[8.312223E0,5.5254984E0,1.1586821E1,4.1318126E0,7.1535516E0,1.0418147E1,1.4627596E1,-7.288328E-2,-4.8963897E-2,-1.6124843E-2,1.6898902E-2,5.3415682E-2,9.0153545E-2,1.2936008E-1,1.8879925E-1],"split_indices":[6,6,6,6,6,6,6,0,0,0,0,0,0,0,0],"split_type":[0,0,0,0,0,0,0,0,0,0,0,0,0,0,0],"sum_hessian":[1.407E3,1.043E3,3.64E2,5.82E2,4.61E2,2.25E2,1.39E2,9.4E1,4.88E2,3.52E2,1.09E2,1.54E2,7.1E1,1.1E2,2.9E1],"tree_param":{"num_deleted":"0","num_feature":"8","num_nodes":"15","size_leaf_vector":"1"}},{"base_weights":[2.3184754E-3,-1.0549755E0,2.971308E0,-1.6650356E0,-2.7440652E-1,1.9101158E0,4.3220353E0,-6.629879E-2,-4.6301335E-2,-1.959001E-2,7.574894E-3,4.4001967E-2,7.318535E-2,1.1832882E-1,1.7426024E-1],"categories":[],"categories_nodes":[],"categories_segments":[],"categories_sizes":[],"default_left":[0,0,0,0,0,0,0,0,0,0,0,0,0,0,0],"id":10,"left_children":[1,3,5,7,9,11,13,-1,-1,-1,-1,-1,-1,-1,-1],"loss_changes":[4.4229795E3,4.9430872E2,5.220957E2,4.2901733E1,8.6013275E1,4.3434265E1,8.2485596E1,0E0,0E0,0E0,0E0,0E0,0E0,0E0,0E0],"parents":[2147483647,0,0,1,1,2,2,3,3,4,4,5,5,6,6],"right_children":[2,4,6,8,10,12,14,-1,-1,-1,-1,-1,-1,-1,-1],"split_conditions":[8.243531E0,5.5254984E0,1.12734165E1,4.3247466E0,6.718534E0,9.645902E0,1.4019403E1,-6.629879E-2,-4.6301335E-2,-1.959001E-2,7.574894E-3,4.4001967E-2,7.318535E-2,1.1832882E-1,1.7426024E-1],"split_indices":[6,6,6,6,6,6,6,0,0,0,0,0,0,0,0],"split_type":[0,0,0,0,0,0,0,0,0,0,0,0,0,0,0],"sum_hessian":[1.407E3,1.038E3,3.69E2,5.82E2,4.56E2,2.08E2,1.61E2,1.43E2,4.39E2,2.69E2,1.87E2,1.04E2,1.04E2,1.21E2,4E1],"tree_param":{"num_deleted":"0","num_feature":"8","num_nodes":"15","size_leaf_vector":"1"}},{"base_weights":[2.4494997E-3,-1.0132244E0,2.9075482E0,-1.5704712E0,-1.9142573E-1,1.9912294E0,4.36598E0,-5.6091137E-2,-3.783976E-2,-1.2141736E-2,2.1862444E-2,4.94285E-2,8.340643E-2,1.2162368E-1,1.7798197E-1],"categories":[],"categories_nodes":[],"categories_segments":[],"categories_sizes":[],"default_left":[0,0,0,0,0,0,0,0,0,0,0,0,0,0,0],"id":11,"left_children":[1,3,5,7,9,11,13,-1,-1,-1,-1,-1,-1,-1,-1],"loss_changes":[4.157437E3,4.777937E2,4.790879E2,5.0932983E1,7.743488E1,5.82713E1,6.0034424E1,0E0,0E0,0E0,0E0,0E0,0E0,0E0,0E0],"parents":[2147483647,0,0,1,1,2,2,3,3,4,4,5,5,6,6],"right_children":[2,4,6,8,10,12,14,-1,-1,-1,-1,-1,-1,-1,-1],"split_conditions":[8.312223E0,5.7261305E0,1.1586821E1,4.8744283E0,7.3956785E0,1.0314197E1,1.4627596E1,-5.6091137E-2,-3.783976E-2,-1.2141736E-2,2.1862444E-2,4.94285E-2,8.340643E-2,1.2162368E-1,1.7798197E-1],"split_indices":[6,6,6,6,6,6,6,0,0,0,0,0,0,0,0],"split_type":[0,0,0,0,0,0,0,0,0,0,0,0,0,0,0],"sum_hessian":[1.407E3,1.043E3,3.64E2,6.21E2,4.22E2,2.25E2,1.39E2,3.57E2,2.64E2,3.45E2,7.7E1,1.48E2,7.7E1,1.1E2,2.9E1],"tree_param":{"num_deleted":"0","num_feature":"8","num_nodes":"15","size_leaf_vector":"1"}},{"base_weights":[2.6213515E-3,-9.820751E-1,2.8191156E0,-1.4065325E0,3.677953E-2,1.930443E0,4.2335505E0,-5.291376E-2,-3.0657975E-2,-5.646005E-3,2.1197231E-2,4.8559036E-2,8.2228765E-2,1.1790873E-1,1.7267902E-1],"categories":[],"categories_nodes":[],"categories_segments":[],"categories_sizes":[],"default_left":[0,0,0,0,0,0,0,0,0,0,0,0,0,0,0],"id":12,"left_children":[1,3,5,7,9,11,13,-1,-1,-1,-1,-1,-1,-1,-1],"loss_changes":[3.9077043E3,4.5154034E2,4.506211E2,9.2453735E1,4.4225914E1,5.49563E1,5.677832E1,0E0,0E0,0E0,0E0,0E0,0E0,0E0,0E0],"parents":[2147483647,0,0,1,1,2,2,3,3,4,4,5,5,6,6],"right_children":[2,4,6,8,10,12,14,-1,-1,-1,-1,-1,-1,-1,-1],"split_conditions":[8.312223E0,6.186563E0,1.1586821E1,5.0215387E0,7.3956785E0,1.0418147E1,1.4627596E1,-5.291376E-2,-3.0657975E-2,-5.646005E-3,2.1197231E-2,4.8559036E-2,8.2228765E-2,1.1790873E-1,1.7267902E-1],"split_indices":[6,6,6,6,6,6,6,0,0,0,0,0,0,0,0],"split_type":[0,0,0,0,0,0,0,0,0,0,0,0,0,0,0],"sum_hessian":[1.407E3,1.043E3,3.64E2,7.36E2,3.07E2,2.25E2,1.39E2,4.18E2,3.18E2,2.3E2,7.7E1,1.54E2,7.1E1,1.1E2,2.9E1],"tree_param":{"num_deleted":"0","num_feature":"8","num_nodes":"15","size_leaf_vector":"1"}},{"base_weights":[2.7914862E-3,-9.607225E-1,2.7084355E0,-1.5240967E0,-2.5381556E-1,1.7387623E0,3.9427147E0,-8.745837E-2,-4.5216925E-2,-1.8044403E-2,7.1697417E-3,3.9747827E-2,6.69268E-2,1.0779987E-1,1.5939458E-1],"categories":[],"categories_nodes":[],"categories_segments":[],"categories_sizes":[],"default_left":[0,0,0,0,0,0,0,0,0,0,0,0,0,0,0],"id":13,"left_children":[1,3,5,7,9,11,13,-1,-1,-1,-1,-1,-1,-1,-1],"loss_changes":[3.6731538E3,4.1339825E2,4.3597803E2,3.916443E1,7.466145E1,3.7813416E1,7.0538574E1,0E0,0E0,0E0,0E0,0E0,0E0,0E0,0E0],"parents":[2147483647,0,0,1,1,2,2,3,3,4,4,5,5,6,6],"right_children":[2,4,6,8,10,12,14,-1,-1,-1,-1,-1,-1,-1,-1],"split_conditions":[8.243531E0,5.514803E0,1.12734165E1,3.545264E0,6.718534E0,9.645902E0,1.4019403E1,-8.745837E-2,-4.5216925E-2,-1.8044403E-2,7.1697417E-3,3.9747827E-2,6.69268E-2,1.0779987E-1,1.5939458E-1],"split_indices":[6,6,6,6,6,6,6,0,0,0,0,0,0,0,0],"split_type":[0,0,0,0,0,0,0,0,0,0,0,0,0,0,0],"sum_hessian":[1.407E3,1.038E3,3.69E2,5.77E2,4.61E2,2.08E2,1.61E2,2.2E1,5.55E2,2.74E2,1.87E2,1.04E2,1.04E2,1.21E2,4E1],"tree_param":{"num_deleted":"0","num_feature":"8","num_nodes":"15","size_leaf_vector":"1"}},{"base_weights":[2.8691394E-3,-9.2272854E-1,2.6503243E0,-1.3227391E0,3.7435625E-2,1.8128176E0,3.9833684E0,-4.9828008E-2,-2.8744122E-2,-5.3058625E-3,2.0269739E-2,4.493619E-2,7.605476E-2,1.1085699E-1,1.6278496E-1],"categories":[],"categories_nodes":[],"categories_segments":[],"categories_sizes":[],"default_left":[0,0,0,0,0,0,0,0,0,0,0,0,0,0,0],"id":14,"left_children":[1,3,5,7,9,11,13,-1,-1,-1,-1,-1,-1,-1,-1],"loss_changes":[3.4527192E3,4.0102472E2,4.0027686E2,8.2999146E1,4.0147346E1,4.891565E1,5.1280273E1,0E0,0E0,0E0,0E0,0E0,0E0,0E0,0E0],"parents":[2147483647,0,0,1,1,2,2,3,3,4,4,5,5,6,6],"right_children":[2,4,6,8,10,12,14,-1,-1,-1,-1,-1,-1,-1,-1],"split_conditions":[8.312223E0,6.186563E0,1.1586821E1,5.0215387E0,7.3956785E0,1.0314197E1,1.4627596E1,-4.9828008E-2,-2.8744122E-2,-5.3058625E-3,2.0269739E-2,4.493619E-2,7.605476E-2,1.1085699E-1,1.6278496E-1],"split_indices":[6,6,6,6,6,6,6,0,0,0,0,0,0,0,0],"split_type":[0,0,0,0,0,0,0,0,0,0,0,0,0,0,0],"sum_hessian":[1.407E3,1.043E3,3.64E2,7.36E2,3.07E2,2.25E2,1.39E2,4.18E2,3.18E2,2.3E2,7.7E1,1.48E2,7.7E1,1.1E2,2.9E1],"tree_param":{"num_deleted":"0","num_feature":"8","num_nodes":"15","size_leaf_vector":"1"}},{"base_weights":[3.0158397E-3,-8.943489E-1,2.5697167E0,-1.282076E0,3.6330257E-2,1.757478E0,3.8625467E0,-4.8295863E-2,-2.786094E-2,-5.1430347E-3,1.9652985E-2,4.4144306E-2,7.499876E-2,1.07470915E-1,1.5793483E-1],"categories":[],"categories_nodes":[],"categories_segments":[],"categories_sizes":[],"default_left":[0,0,0,0,0,0,0,0,0,0,0,0,0,0,0],"id":15,"left_children":[1,3,5,7,9,11,13,-1,-1,-1,-1,-1,-1,-1,-1],"loss_changes":[3.2452979E3,3.7677332E2,3.7649316E2,7.7968506E1,3.7737152E1,4.6190796E1,4.849463E1,0E0,0E0,0E0,0E0,0E0,0E0,0E0,0E0],"parents":[2147483647,0,0,1,1,2,2,3,3,4,4,5,5,6,6],"right_children":[2,4,6,8,10,12,14,-1,-1,-1,-1,-1,-1,-1,-1],"split_conditions":[8.312223E0,6.186563E0,1.1586821E1,5.0215387E0,7.3956785E0,1.0418147E1,1.4627596E1,-4.8295863E-2,-2.786094E-2,-5.1430347E-3,1.9652985E-2,4.4144306E-2,7.499876E-2,1.07470915E-1,1.5793483E-1],"split_indices":[6,6,6,6,6,6,6,0,0,0,0,0,0,0,0],"split_type":[0,0,0,0,0,0,0,0,0,0,0,0,0,0,0],"sum_hessian":[1.407E3,1.043E3,3.64E2,7.36E2,3.07E2,2.25E2,1.39E2,4.18E2,3.18E2,2.3E2,7.7E1,1.54E2,7.1E1,1.1E2,2.9E1],"tree_param":{"num_deleted":"0","num_feature":"8","num_nodes":"15","size_leaf_vector":"1"}},{"base_weights":[3.1523397E-3,-8.222688E-1,2.628815E0,-1.2381392E0,1.1246872E-1,1.8260403E0,3.7453904E0,-4.723253E-2,-2.7357398E-2,-4.7058654E-3,2.0858008E-2,4.6521045E-2,7.271923E-2,1.03060596E-1,1.496386E-1],"categories":[],"categories_nodes":[],"categories_segments":[],"categories_sizes":[],"default_left":[0,0,0,0,0,0,0,0,0,0,0,0,0,0,0],"id":16,"left_children":[1,3,5,7,9,11,13,-1,-1,-1,-1,-1,-1,-1,-1],"loss_changes":[3.0536882E3,4.1685742E2,2.9523364E2,7.5184814E1,4.962396E1,2.9879211E1,4.6159546E1,0E0,0E0,0E0,0E0,0E0,0E0,0E0,0E0],"parents":[2147483647,0,0,1,1,2,2,3,3,4,4,5,5,6,6],"right_children":[2,4,6,8,10,12,14,-1,-1,-1,-1,-1,-1,-1,-1],"split_conditions":[8.672204E0,6.2124476E0,1.1586821E1,4.99739E0,7.3956785E0,1.0418147E1,1.43692255E1,-4.723253E-2,-2.7357398E-2,-4.7058654E-3,2.0858008E-2,4.6521045E-2,7.271923E-2,1.03060596E-1,1.496386E-1],"split_indices":[6,6,6,6,6,6,6,0,0,0,0,0,0,0,0],"split_type":[0,0,0,0,0,0,0,0,0,0,0,0,0,0,0],"sum_hessian":[1.407E3,1.071E3,3.36E2,7.41E2,3.3E2,1.97E2,1.39E2,4.01E2,3.4E2,2.25E2,1.05E2,1.26E2,7.1E1,1.05E2,3.4E1],"tree_param":{"num_deleted":"0","num_feature":"8","num_nodes":"15","size_leaf_vector":"1"}},{"base_weights":[3.277898E-3,-7.96979E-1,2.5488925E0,-1.2045283E0,9.933283E-2,1.7703596E0,3.6317542E0,-4.4798445E-2,-2.5280584E-2,-4.8256665E-3,2.022119E-2,4.509845E-2,7.0508994E-2,1.0097567E-1,1.4877075E-1],"categories":[],"categories_nodes":[],"categories_segments":[],"categories_sizes":[],"default_left":[0,0,0,0,0,0,0,0,0,0,0,0,0,0,0],"id":17,"left_children":[1,3,5,7,9,11,13,-1,-1,-1,-1,-1,-1,-1,-1],"loss_changes":[2.8703325E3,3.917119E2,2.7767627E2,6.9312744E1,4.7970863E1,2.8112366E1,4.369287E1,0E0,0E0,0E0,0E0,0E0,0E0,0E0,0E0],"parents":[2147483647,0,0,1,1,2,2,3,3,4,4,5,5,6,6],"right_children":[2,4,6,8,10,12,14,-1,-1,-1,-1,-1,-1,-1,-1],"split_conditions":[8.672204E0,6.186563E0,1.1586821E1,5.093019E0,7.3956785E0,1.0418147E1,1.4627596E1,-4.4798445E-2,-2.5280584E-2,-4.8256665E-3,2.022119E-2,4.509845E-2,7.0508994E-2,1.0097567E-1,1.4877075E-1],"split_indices":[6,6,6,6,6,6,6,0,0,0,0,0,0,0,0],"split_type":[0,0,0,0,0,0,0,0,0,0,0,0,0,0,0],"sum_hessian":[1.407E3,1.071E3,3.36E2,7.36E2,3.35E2,1.97E2,1.39E2,4.45E2,2.91E2,2.3E2,1.05E2,1.26E2,7.1E1,1.1E2,2.9E1],"tree_param":{"num_deleted":"0","num_feature":"8","num_nodes":"15","size_leaf_vector":"1"}},{"base_weights":[3.397451E-3,-7.7246547E-1,2.471414E0,-1.1632633E0,1.05916716E-1,1.7163773E0,3.5215993E0,-4.296178E-2,-2.362844E-2,-4.413384E-3,1.9603807E-2,4.3719366E-2,6.836593E-2,9.683107E-2,1.4091422E-1],"categories":[],"categories_nodes":[],"categories_segments":[],"categories_sizes":[],"default_left":[0,0,0,0,0,0,0,0,0,0,0,0,0,0,0],"id":18,"left_children":[1,3,5,7,9,11,13,-1,-1,-1,-1,-1,-1,-1,-1],"loss_changes":[2.6980076E3,3.6810846E2,2.6117236E2,6.680023E1,4.3800785E1,2.6449951E1,4.151001E1,0E0,0E0,0E0,0E0,0E0,0E0,0E0,0E0],"parents":[2147483647,0,0,1,1,2,2,3,3,4,4,5,5,6,6],"right_children":[2,4,6,8,10,12,14,-1,-1,-1,-1,-1,-1,-1,-1],"split_conditions":[8.672204E0,6.2124476E0,1.1586821E1,5.147749E0,7.3956785E0,1.0418147E1,1.43692255E1,-4.296178E-2,-2.362844E-2,-4.413384E-3,1.9603807E-2,4.3719366E-2,6.836593E-2,9.683107E-2,1.4091422E-1],"split_indices":[6,6,6,6,6,6,6,0,0,0,0,0,0,0,0],"split_type":[0,0,0,0,0,0,0,0,0,0,0,0,0,0,0],"sum_hessian":[1.407E3,1.071E3,3.36E2,7.41E2,3.3E2,1.97E2,1.39E2,4.67E2,2.74E2,2.25E2,1.05E2,1.26E2,7.1E1,1.05E2,3.4E1],"tree_param":{"num_deleted":"0","num_feature":"8","num_nodes":"15","size_leaf_vector":"1"}},{"base_weights":[3.5046157E-3,-8.0589855E-1,2.2272015E0,-1.2702466E0,-2.1554965E-1,1.421915E0,3.2821975E0,-7.800713E-2,-3.747408E-2,-1.3229507E-2,8.628095E-3,3.1926434E-2,5.5989332E-2,8.9503E-2,1.3339756E-1],"categories":[],"categories_nodes":[],"categories_segments":[],"categories_sizes":[],"default_left":[0,0,0,0,0,0,0,0,0,0,0,0,0,0,0],"id":19,"left_children":[1,3,5,7,9,11,13,-1,-1,-1,-1,-1,-1,-1,-1],"loss_changes":[2.536008E3,2.8289984E2,3.1477283E2,3.658496E1,4.8396618E1,3.0874664E1,5.1530396E1,0E0,0E0,0E0,0E0,0E0,0E0,0E0,0E0],"parents":[2147483647,0,0,1,1,2,2,3,3,4,4,5,5,6,6],"right_children":[2,4,6,8,10,12,14,-1,-1,-1,-1,-1,-1,-1,-1],"split_conditions":[8.1989E0,5.514803E0,1.12734165E1,3.545264E0,6.9504666E0,9.645902E0,1.4019403E1,-7.800713E-2,-3.747408E-2,-1.3229507E-2,8.628095E-3,3.1926434E-2,5.5989332E-2,8.9503E-2,1.3339756E-1],"split_indices":[6,6,6,6,6,6,6,0,0,0,0,0,0,0,0],"split_type":[0,0,0,0,0,0,0,0,0,0,0,0,0,0,0],"sum_hessian":[1.407E3,1.032E3,3.75E2,5.77E2,4.55E2,2.14E2,1.61E2,2.2E1,5.55E2,3.18E2,1.37E2,1.1E2,1.04E2,1.21E2,4E1],"tree_param":{"num_deleted":"0","num_feature":"8","num_nodes":"15","size_leaf_vector":"1"}},{"base_weights":[3.5320579E-3,-7.26042E-1,2.3243032E0,-1.0942322E0,1.0152044E-1,1.613239E0,3.3133488E0,-4.186158E-2,-2.4037626E-2,-4.08364E-3,1.8477641E-2,4.1084956E-2,6.427062E-2,9.200462E-2,1.3616511E-1],"categories":[],"categories_nodes":[],"categories_segments":[],"categories_sizes":[],"default_left":[0,0,0,0,0,0,0,0,0,0,0,0,0,0,0],"id":20,"left_children":[1,3,5,7,9,11,13,-1,-1,-1,-1,-1,-1,-1,-1],"loss_changes":[2.3856768E3,3.2674988E2,2.3165857E2,6.050238E1,3.8650974E1,2.3411804E1,3.7579956E1,0E0,0E0,0E0,0E0,0E0,0E0,0E0,0E0],"parents":[2147483647,0,0,1,1,2,2,3,3,4,4,5,5,6,6],"right_children":[2,4,6,8,10,12,14,-1,-1,-1,-1,-1,-1,-1,-1],"split_conditions":[8.672204E0,6.2124476E0,1.1586821E1,4.99739E0,7.3956785E0,1.0418147E1,1.4627596E1,-4.186158E-2,-2.4037626E-2,-4.08364E-3,1.8477641E-2,4.1084956E-2,6.427062E-2,9.200462E-2,1.3616511E-1],"split_indices":[6,6,6,6,6,6,6,0,0,0,0,0,0,0,0],"split_type":[0,0,0,0,0,0,0,0,0,0,0,0,0,0,0],"sum_hessian":[1.407E3,1.071E3,3.36E2,7.41E2,3.3E2,1.97E2,1.39E2,4.01E2,3.4E2,2.25E2,1.05E2,1.26E2,7.1E1,1.1E2,2.9E1],"tree_param":{"num_deleted":"0","num_feature":"8","num_nodes":"15","size_leaf_vector":"1"}},{"base_weights":[3.623497E-3,-7.0371175E-1,2.2536523E0,-1.0779667E0,6.1634574E-2,1.5640472E0,3.2128537E0,-4.5815844E-2,-2.7593862E-2,-4.9525467E-3,1.7913498E-2,3.9828587E-2,6.2317166E-2,8.919437E-2,1.321081E-1],"categories":[],"categories_nodes":[],"categories_segments":[],"categories_sizes":[],"default_left":[0,0,0,0,0,0,0,0,0,0,0,0,0,0,0],"id":21,"left_children":[1,3,5,7,9,11,13,-1,-1,-1,-1,-1,-1,-1,-1],"loss_changes":[2.2424526E3,3.071244E2,2.1789038E2,5.240576E1,4.086658E1,2.2027313E1,3.553235E1,0E0,0E0,0E0,0E0,0E0,0E0,0E0,0E0],"parents":[2147483647,0,0,1,1,2,2,3,3,4,4,5,5,6,6],"right_children":[2,4,6,8,10,12,14,-1,-1,-1,-1,-1,-1,-1,-1],"split_conditions":[8.672204E0,6.0803137E0,1.1586821E1,4.538903E0,7.3956785E0,1.0418147E1,1.4627596E1,-4.5815844E-2,-2.7593862E-2,-4.9525467E-3,1.7913498E-2,3.9828587E-2,6.2317166E-2,8.919437E-2,1.321081E-1],"split_indices":[6,6,6,6,6,6,6,0,0,0,0,0,0,0,0],"split_type":[0,0,0,0,0,0,0,0,0,0,0,0,0,0,0],"sum_hessian":[1.407E3,1.071E3,3.36E2,7.19E2,3.52E2,1.97E2,1.39E2,2.2E2,4.99E2,2.47E2,1.05E2,1.26E2,7.1E1,1.1E2,2.9E1],"tree_param":{"num_deleted":"0","num_feature":"8","num_nodes":"15","size_leaf_vector":"1"}},{"base_weights":[3.6987422E-3,-6.8207806E-1,2.18515E0,-1.1053345E0,-4.5110144E-2,1.516356E0,3.1154072E0,-5.2417893E-2,-3.0837541E-2,-7.7180485E-3,1.6807009E-2,3.8610656E-2,6.0423095E-2,8.439719E-2,1.2203923E-1],"categories":[],"categories_nodes":[],"categories_segments":[],"categories_sizes":[],"default_left":[0,0,0,0,0,0,0,0,0,0,0,0,0,0,0],"id":22,"left_children":[1,3,5,7,9,11,13,-1,-1,-1,-1,-1,-1,-1,-1],"loss_changes":[2.1078423E3,2.8896213E2,2.0494067E2,3.849164E1,5.213394E1,2.0724731E1,3.3732544E1,0E0,0E0,0E0,0E0,0E0,0E0,0E0,0E0],"parents":[2147483647,0,0,1,1,2,2,3,3,4,4,5,5,6,6],"right_children":[2,4,6,8,10,12,14,-1,-1,-1,-1,-1,-1,-1,-1],"split_conditions":[8.672204E0,5.848404E0,1.1586821E1,4.1318126E0,7.377446E0,1.0418147E1,1.4019403E1,-5.2417893E-2,-3.0837541E-2,-7.7180485E-3,1.6807009E-2,3.8610656E-2,6.0423095E-2,8.439719E-2,1.2203923E-1],"split_indices":[6,6,6,6,6,6,6,0,0,0,0,0,0,0,0],"split_type":[0,0,0,0,0,0,0,0,0,0,0,0,0,0,0],"sum_hessian":[1.407E3,1.071E3,3.36E2,6.43E2,4.28E2,1.97E2,1.39E2,9.4E1,5.49E2,3.18E2,1.1E2,1.26E2,7.1E1,9.9E1,4E1],"tree_param":{"num_deleted":"0","num_feature":"8","num_nodes":"15","size_leaf_vector":"1"}},{"base_weights":[3.7490388E-3,-7.1179795E-1,1.9695903E0,-1.1261569E0,-1.8501876E-1,1.2561798E0,2.9042425E0,-7.157701E-2,-3.312318E-2,-1.296553E-2,5.3027184E-3,1.6954672E-2,4.406057E-2,7.9084545E-2,1.1836947E-1],"categories":[],"categories_nodes":[],"categories_segments":[],"categories_sizes":[],"default_left":[0,0,0,0,0,0,0,0,0,0,0,0,0,0,0],"id":23,"left_children":[1,3,5,7,9,11,13,-1,-1,-1,-1,-1,-1,-1,-1],"loss_changes":[1.9819675E3,2.2527045E2,2.4706519E2,3.3111572E1,3.8438652E1,2.5526672E1,4.1468872E1,0E0,0E0,0E0,0E0,0E0,0E0,0E0,0E0],"parents":[2147483647,0,0,1,1,2,2,3,3,4,4,5,5,6,6],"right_children":[2,4,6,8,10,12,14,-1,-1,-1,-1,-1,-1,-1,-1],"split_conditions":[8.1989E0,5.514803E0,1.12734165E1,3.545264E0,6.718534E0,1.24E0,1.4019403E1,-7.157701E-2,-3.312318E-2,-1.296553E-2,5.3027184E-3,1.6954672E-2,4.406057E-2,7.9084545E-2,1.1836947E-1],"split_indices":[6,6,6,6,6,0,6,0,0,0,0,0,0,0,0],"split_type":[0,0,0,0,0,0,0,0,0,0,0,0,0,0,0],"sum_hessian":[1.407E3,1.032E3,3.75E2,5.77E2,4.55E2,2.14E2,1.61E2,2.2E1,5.55E2,2.74E2,1.81E2,4.3E1,1.71E2,1.21E2,4E1],"tree_param":{"num_deleted":"0","num_feature":"8","num_nodes":"15","size_leaf_vector":"1"}},{"base_weights":[3.7372073E-3,-6.4123577E-1,2.0553908E0,-9.6806633E-1,9.335496E-2,1.4258116E0,2.9311144E0,-3.855681E-2,-2.232751E-2,-3.4749082E-3,1.6393878E-2,3.5267625E-2,5.5546973E-2,8.2273155E-2,1.2592182E-1],"categories":[],"categories_nodes":[],"categories_segments":[],"categories_sizes":[],"default_left":[0,0,0,0,0,0,0,0,0,0,0,0,0,0,0],"id":24,"left_children":[1,3,5,7,9,11,13,-1,-1,-1,-1,-1,-1,-1,-1],"loss_changes":[1.8644696E3,2.5746332E2,1.8162146E2,5.0238586E1,2.9975412E1,1.8921448E1,3.1408203E1,0E0,0E0,0E0,0E0,0E0,0E0,0E0,0E0],"parents":[2147483647,0,0,1,1,2,2,3,3,4,4,5,5,6,6],"right_children":[2,4,6,8,10,12,14,-1,-1,-1,-1,-1,-1,-1,-1],"split_conditions":[8.672204E0,6.2124476E0,1.1586821E1,4.8353453E0,7.3956785E0,1.013218E1,1.49031925E1,-3.855681E-2,-2.232751E-2,-3.4749082E-3,1.6393878E-2,3.5267625E-2,5.5546973E-2,8.2273155E-2,1.2592182E-1],"split_indices":[6,6,6,6,6,6,6,0,0,0,0,0,0,0,0],"split_type":[0,0,0,0,0,0,0,0,0,0,0,0,0,0,0],"sum_hessian":[1.407E3,1.071E3,3.36E2,7.41E2,3.3E2,1.97E2,1.39E2,3.41E2,4E2,2.25E2,1.05E2,1.15E2,8.2E1,1.16E2,2.3E1],"tree_param":{"num_deleted":"0","num_feature":"8","num_nodes":"15","size_leaf_vector":"1"}},{"base_weights":[3.8001817E-3,-6.2151635E-1,1.9929262E0,-9.383106E-1,9.051652E-2,1.3823236E0,2.8422577E0,-3.612108E-2,-2.0347714E-2,-3.3682839E-3,1.5893355E-2,3.418996E-2,5.3855523E-2,7.975898E-2,1.2220234E-1],"categories":[],"categories_nodes":[],"categories_segments":[],"categories_sizes":[],"default_left":[0,0,0,0,0,0,0,0,0,0,0,0,0,0,0],"id":25,"left_children":[1,3,5,7,9,11,13,-1,-1,-1,-1,-1,-1,-1,-1],"loss_changes":[1.7525559E3,2.4189377E2,1.7084058E2,4.7439148E1,2.8171434E1,1.7794312E1,2.9742188E1,0E0,0E0,0E0,0E0,0E0,0E0,0E0,0E0],"parents":[2147483647,0,0,1,1,2,2,3,3,4,4,5,5,6,6],"right_children":[2,4,6,8,10,12,14,-1,-1,-1,-1,-1,-1,-1,-1],"split_conditions":[8.672204E0,6.2124476E0,1.1586821E1,4.99739E0,7.3956785E0,1.013218E1,1.49031925E1,-3.612108E-2,-2.0347714E-2,-3.3682839E-3,1.5893355E-2,3.418996E-2,5.3855523E-2,7.975898E-2,1.2220234E-1],"split_indices":[6,6,6,6,6,6,6,0,0,0,0,0,0,0,0],"split_type":[0,0,0,0,0,0,0,0,0,0,0,0,0,0,0],"sum_hessian":[1.407E3,1.071E3,3.36E2,7.41E2,3.3E2,1.97E2,1.39E2,4.01E2,3.4E2,2.25E2,1.05E2,1.15E2,8.2E1,1.16E2,2.3E1],"tree_param":{"num_deleted":"0","num_feature":"8","num_nodes":"15","size_leaf_vector":"1"}},{"base_weights":[3.8577414E-3,-6.414117E-1,1.8158337E0,-1.0285088E0,-1.5573314E-1,1.1606919E0,2.6498387E0,-6.7265116E-2,-3.0172726E-2,-1.0270954E-2,8.119137E-3,1.4303951E-2,4.0929936E-2,7.200623E-2,1.084491E-1],"categories":[],"categories_nodes":[],"categories_segments":[],"categories_sizes":[],"default_left":[0,0,0,0,0,0,0,0,0,0,0,0,0,0,0],"id":26,"left_children":[1,3,5,7,9,11,13,-1,-1,-1,-1,-1,-1,-1,-1],"loss_changes":[1.647416E3,1.9517676E2,1.9908923E2,3.093042E1,3.4460094E1,2.3733185E1,3.5921143E1,0E0,0E0,0E0,0E0,0E0,0E0,0E0,0E0],"parents":[2147483647,0,0,1,1,2,2,3,3,4,4,5,5,6,6],"right_children":[2,4,6,8,10,12,14,-1,-1,-1,-1,-1,-1,-1,-1],"split_conditions":[8.243531E0,5.514803E0,1.12734165E1,3.545264E0,6.9723854E0,1.24E0,1.4019403E1,-6.7265116E-2,-3.0172726E-2,-1.0270954E-2,8.119137E-3,1.4303951E-2,4.0929936E-2,7.200623E-2,1.084491E-1],"split_indices":[6,6,6,6,6,0,6,0,0,0,0,0,0,0,0],"split_type":[0,0,0,0,0,0,0,0,0,0,0,0,0,0,0],"sum_hessian":[1.407E3,1.038E3,3.69E2,5.77E2,4.61E2,2.08E2,1.61E2,2.2E1,5.55E2,3.24E2,1.37E2,4.1E1,1.67E2,1.21E2,4E1],"tree_param":{"num_deleted":"0","num_feature":"8","num_nodes":"15","size_leaf_vector":"1"}},{"base_weights":[3.8355822E-3,-5.8419514E-1,1.8743551E0,-8.8590914E-1,7.9338916E-2,1.2993475E0,2.6741917E0,-3.980882E-2,-2.2796653E-2,-3.3120618E-3,1.4969257E-2,2.7475279E-2,4.6861716E-2,7.495802E-2,1.1538938E-1],"categories":[],"categories_nodes":[],"categories_segments":[],"categories_sizes":[],"default_left":[0,0,0,0,0,0,0,0,0,0,0,0,0,0,0],"id":27,"left_children":[1,3,5,7,9,11,13,-1,-1,-1,-1,-1,-1,-1,-1],"loss_changes":[1.5497864E3,2.14682E2,1.5151562E2,4.2781067E1,2.5554565E1,1.6498383E1,2.7167236E1,0E0,0E0,0E0,0E0,0E0,0E0,0E0,0E0],"parents":[2147483647,0,0,1,1,2,2,3,3,4,4,5,5,6,6],"right_children":[2,4,6,8,10,12,14,-1,-1,-1,-1,-1,-1,-1,-1],"split_conditions":[8.672204E0,6.186563E0,1.1586821E1,4.4498906E0,7.3956785E0,9.645902E0,1.49031925E1,-3.980882E-2,-2.2796653E-2,-3.3120618E-3,1.4969257E-2,2.7475279E-2,4.6861716E-2,7.495802E-2,1.1538938E-1],"split_indices":[6,6,6,6,6,6,6,0,0,0,0,0,0,0,0],"split_type":[0,0,0,0,0,0,0,0,0,0,0,0,0,0,0],"sum_hessian":[1.407E3,1.071E3,3.36E2,7.36E2,3.35E2,1.97E2,1.39E2,1.93E2,5.43E2,2.3E2,1.05E2,7.1E1,1.26E2,1.16E2,2.3E1],"tree_param":{"num_deleted":"0","num_feature":"8","num_nodes":"15","size_leaf_vector":"1"}},{"base_weights":[3.869163E-3,-5.662365E-1,1.8173687E0,-9.366728E-1,-5.409091E-2,1.2596742E0,2.593127E0,-5.524139E-2,-2.701148E-2,-7.616309E-3,1.1881253E-2,3.17883E-2,5.0700344E-2,7.2667405E-2,1.11981E-1],"categories":[],"categories_nodes":[],"categories_segments":[],"categories_sizes":[],"default_left":[0,0,0,0,0,0,0,0,0,0,0,0,0,0,0],"id":28,"left_children":[1,3,5,7,9,11,13,-1,-1,-1,-1,-1,-1,-1,-1],"loss_changes":[1.456741E3,2.0332632E2,1.4253186E2,3.052417E1,3.8359245E1,1.5720612E1,2.5722717E1,0E0,0E0,0E0,0E0,0E0,0E0,0E0,0E0],"parents":[2147483647,0,0,1,1,2,2,3,3,4,4,5,5,6,6],"right_children":[2,4,6,8,10,12,14,-1,-1,-1,-1,-1,-1,-1,-1],"split_conditions":[8.672204E0,5.7261305E0,1.1586821E1,3.8725615E0,7.1535516E0,1.0418147E1,1.49031925E1,-5.524139E-2,-2.701148E-2,-7.616309E-3,1.1881253E-2,3.17883E-2,5.0700344E-2,7.2667405E-2,1.11981E-1],"split_indices":[6,6,6,6,6,6,6,0,0,0,0,0,0,0,0],"split_type":[0,0,0,0,0,0,0,0,0,0,0,0,0,0,0],"sum_hessian":[1.407E3,1.071E3,3.36E2,6.21E2,4.5E2,1.97E2,1.39E2,3.9E1,5.82E2,3.13E2,1.37E2,1.26E2,7.1E1,1.16E2,2.3E1],"tree_param":{"num_deleted":"0","num_feature":"8","num_nodes":"15","size_leaf_vector":"1"}},{"base_weights":[3.8843257E-3,-5.9092575E-1,1.6380197E0,-9.3966913E-1,-1.4758232E-1,1.0426636E0,2.4180417E0,-6.2479716E-2,-2.75241E-2,-1.0604641E-2,4.6264664E-3,1.2734389E-2,3.6913868E-2,6.557045E-2,9.936998E-2],"categories":[],"categories_nodes":[],"categories_segments":[],"categories_sizes":[],"default_left":[0,0,0,0,0,0,0,0,0,0,0,0,0,0,0],"id":29,"left_children":[1,3,5,7,9,11,13,-1,-1,-1,-1,-1,-1,-1,-1],"loss_changes":[1.3695442E3,1.5957666E2,1.7208978E2,2.7525879E1,2.6722061E1,2.0480118E1,3.1090942E1,0E0,0E0,0E0,0E0,0E0,0E0,0E0,0E0],"parents":[2147483647,0,0,1,1,2,2,3,3,4,4,5,5,6,6],"right_children":[2,4,6,8,10,12,14,-1,-1,-1,-1,-1,-1,-1,-1],"split_conditions":[8.1989E0,5.514803E0,1.12734165E1,3.545264E0,6.718534E0,1.24E0,1.4019403E1,-6.2479716E-2,-2.75241E-2,-1.0604641E-2,4.6264664E-3,1.2734389E-2,3.6913868E-2,6.557045E-2,9.936998E-2],"split_indices":[6,6,6,6,6,0,6,0,0,0,0,0,0,0,0],"split_type":[0,0,0,0,0,0,0,0,0,0,0,0,0,0,0],"sum_hessian":[1.407E3,1.032E3,3.75E2,5.77E2,4.55E2,2.14E2,1.61E2,2.2E1,5.55E2,2.74E2,1.81E2,4.3E1,1.71E2,1.21E2,4E1],"tree_param":{"num_deleted":"0","num_feature":"8","num_nodes":"15","size_leaf_vector":"1"}},{"base_weights":[3.848828E-3,-5.3233194E-1,1.7094333E0,-8.0546737E-1,8.156168E-2,1.1844066E0,2.4397607E0,-3.5624314E-2,-2.0207155E-2,-2.7759736E-3,1.3768631E-2,2.4707321E-2,4.290763E-2,6.829165E-2,1.0573812E-1],"categories":[],"categories_nodes":[],"categories_segments":[],"categories_sizes":[],"default_left":[0,0,0,0,0,0,0,0,0,0,0,0,0,0,0],"id":30,"left_children":[1,3,5,7,9,11,13,-1,-1,-1,-1,-1,-1,-1,-1],"loss_changes":[1.2885282E3,1.7981445E2,1.2633014E2,3.8198822E1,2.078369E1,1.4626099E1,2.348462E1,0E0,0E0,0E0,0E0,0E0,0E0,0E0,0E0],"parents":[2147483647,0,0,1,1,2,2,3,3,4,4,5,5,6,6],"right_children":[2,4,6,8,10,12,14,-1,-1,-1,-1,-1,-1,-1,-1],"split_conditions":[8.672204E0,6.2124476E0,1.1586821E1,4.538903E0,7.3956785E0,9.645902E0,1.49031925E1,-3.5624314E-2,-2.0207155E-2,-2.7759736E-3,1.3768631E-2,2.4707321E-2,4.290763E-2,6.829165E-2,1.0573812E-1],"split_indices":[6,6,6,6,6,6,6,0,0,0,0,0,0,0,0],"split_type":[0,0,0,0,0,0,0,0,0,0,0,0,0,0,0],"sum_hessian":[1.407E3,1.071E3,3.36E2,7.41E2,3.3E2,1.97E2,1.39E2,2.2E2,5.21E2,2.25E2,1.05E2,7.1E1,1.26E2,1.16E2,2.3E1],"tree_param":{"num_deleted":"0","num_feature":"8","num_nodes":"15","size_leaf_vector":"1"}},{"base_weights":[3.8699294E-3,-5.159662E-1,1.6574618E0,-8.84822E-1,-8.4219426E-2,1.1482419E0,2.3658051E0,-5.95874E-2,-2.5886346E-2,-7.7866614E-3,1.08890515E-2,-1.4002182E-2,3.6743537E-2,6.528048E-2,9.875255E-2],"categories":[],"categories_nodes":[],"categories_segments":[],"categories_sizes":[],"default_left":[0,0,0,0,0,0,0,0,0,0,0,0,0,0,0],"id":31,"left_children":[1,3,5,7,9,11,13,-1,-1,-1,-1,-1,-1,-1,-1],"loss_changes":[1.2111674E3,1.7064395E2,1.1884021E2,2.562323E1,3.6561405E1,1.4461609E1,2.2295044E1,0E0,0E0,0E0,0E0,0E0,0E0,0E0,0E0],"parents":[2147483647,0,0,1,1,2,2,3,3,4,4,5,5,6,6],"right_children":[2,4,6,8,10,12,14,-1,-1,-1,-1,-1,-1,-1,-1],"split_conditions":[8.672204E0,5.514803E0,1.1586821E1,3.545264E0,7.1535516E0,1.55E1,1.4627596E1,-5.95874E-2,-2.5886346E-2,-7.7866614E-3,1.08890515E-2,-1.4002182E-2,3.6743537E-2,6.528048E-2,9.875255E-2],"split_indices":[6,6,6,6,6,2,6,0,0,0,0,0,0,0,0],"split_type":[0,0,0,0,0,0,0,0,0,0,0,0,0,0,0],"sum_hessian":[1.407E3,1.071E3,3.36E2,5.77E2,4.94E2,1.97E2,1.39E2,2.2E1,5.55E2,3.57E2,1.37E2,5E0,1.92E2,1.1E2,2.9E1],"tree_param":{"num_deleted":"0","num_feature":"8","num_nodes":"15","size_leaf_vector":"1"}},{"base_weights":[3.8249055E-3,-5.3257656E-1,1.5100878E0,-8.5769755E-1,-1.2467067E-1,9.620548E-1,2.2077966E0,-5.7830635E-2,-2.5089901E-2,-9.482173E-3,4.885698E-3,1.0353458E-2,3.430096E-2,5.9782427E-2,9.098811E-2],"categories":[],"categories_nodes":[],"categories_segments":[],"categories_sizes":[],"default_left":[0,0,0,0,0,0,0,0,0,0,0,0,0,0,0],"id":32,"left_children":[1,3,5,7,9,11,13,-1,-1,-1,-1,-1,-1,-1,-1],"loss_changes":[1.1384141E3,1.3768396E2,1.3935187E2,2.4187073E1,2.398684E1,1.9361862E1,2.6611023E1,0E0,0E0,0E0,0E0,0E0,0E0,0E0,0E0],"parents":[2147483647,0,0,1,1,2,2,3,3,4,4,5,5,6,6],"right_children":[2,4,6,8,10,12,14,-1,-1,-1,-1,-1,-1,-1,-1],"split_conditions":[8.243531E0,5.514803E0,1.12734165E1,3.545264E0,6.7480164E0,1.24E0,1.4019403E1,-5.7830635E-2,-2.5089901E-2,-9.482173E-3,4.885698E-3,1.0353458E-2,3.430096E-2,5.9782427E-2,9.098811E-2],"split_indices":[6,6,6,6,6,0,6,0,0,0,0,0,0,0,0],"split_type":[0,0,0,0,0,0,0,0,0,0,0,0,0,0,0],"sum_hessian":[1.407E3,1.038E3,3.69E2,5.77E2,4.61E2,2.08E2,1.61E2,2.2E1,5.55E2,2.8E2,1.81E2,4.1E1,1.67E2,1.21E2,4E1],"tree_param":{"num_deleted":"0","num_feature":"8","num_nodes":"15","size_leaf_vector":"1"}},{"base_weights":[3.7836982E-3,-4.850099E-1,1.5586293E0,-7.35289E-1,7.750386E-2,1.0790306E0,2.225786E0,-2.9794956E-2,-1.652431E-2,-2.4559621E-3,1.2695791E-2,-1.4523565E-2,3.4571238E-2,6.2190305E-2,9.701027E-2],"categories":[],"categories_nodes":[],"categories_segments":[],"categories_sizes":[],"default_left":[0,0,0,0,0,0,0,0,0,0,0,0,0,0,0],"id":33,"left_children":[1,3,5,7,9,11,13,-1,-1,-1,-1,-1,-1,-1,-1],"loss_changes":[1.0708341E3,1.5097896E2,1.05427246E2,3.3676758E1,1.7431107E1,1.3605377E1,2.049701E1,0E0,0E0,0E0,0E0,0E0,0E0,0E0,0E0],"parents":[2147483647,0,0,1,1,2,2,3,3,4,4,5,5,6,6],"right_children":[2,4,6,8,10,12,14,-1,-1,-1,-1,-1,-1,-1,-1],"split_conditions":[8.672204E0,6.2124476E0,1.1586821E1,4.8353453E0,7.3956785E0,1.55E1,1.49031925E1,-2.9794956E-2,-1.652431E-2,-2.4559621E-3,1.2695791E-2,-1.4523565E-2,3.4571238E-2,6.2190305E-2,9.701027E-2],"split_indices":[6,6,6,6,6,2,6,0,0,0,0,0,0,0,0],"split_type":[0,0,0,0,0,0,0,0,0,0,0,0,0,0,0],"sum_hessian":[1.407E3,1.071E3,3.36E2,7.41E2,3.3E2,1.97E2,1.39E2,3.41E2,4E2,2.25E2,1.05E2,5E0,1.92E2,1.16E2,2.3E1],"tree_param":{"num_deleted":"0","num_feature":"8","num_nodes":"15","size_leaf_vector":"1"}},{"base_weights":[3.7687982E-3,-4.7009438E-1,1.5111207E0,-7.8015476E-1,-4.143E-2,1.0458733E0,2.1583195E0,-4.041662E-2,-2.1659043E-2,-5.5660857E-3,1.1911028E-2,2.107099E-2,3.8312156E-2,6.0289856E-2,9.414478E-2],"categories":[],"categories_nodes":[],"categories_segments":[],"categories_sizes":[],"default_left":[0,0,0,0,0,0,0,0,0,0,0,0,0,0,0],"id":34,"left_children":[1,3,5,7,9,11,13,-1,-1,-1,-1,-1,-1,-1,-1],"loss_changes":[1.0064145E3,1.4244914E2,9.921594E1,2.4663727E1,2.6922966E1,1.3289307E1,1.9401367E1,0E0,0E0,0E0,0E0,0E0,0E0,0E0,0E0],"parents":[2147483647,0,0,1,1,2,2,3,3,4,4,5,5,6,6],"right_children":[2,4,6,8,10,12,14,-1,-1,-1,-1,-1,-1,-1,-1],"split_conditions":[8.672204E0,5.7261305E0,1.1586821E1,4.0792184E0,7.377446E0,9.645902E0,1.49031925E1,-4.041662E-2,-2.1659043E-2,-5.5660857E-3,1.1911028E-2,2.107099E-2,3.8312156E-2,6.0289856E-2,9.414478E-2],"split_indices":[6,6,6,6,6,6,6,0,0,0,0,0,0,0,0],"split_type":[0,0,0,0,0,0,0,0,0,0,0,0,0,0,0],"sum_hessian":[1.407E3,1.071E3,3.36E2,6.21E2,4.5E2,1.97E2,1.39E2,7.7E1,5.44E2,3.4E2,1.1E2,7.1E1,1.26E2,1.16E2,2.3E1],"tree_param":{"num_deleted":"0","num_feature":"8","num_nodes":"15","size_leaf_vector":"1"}},{"base_weights":[3.7649034E-3,-4.9062213E-1,1.3620044E0,-7.8295964E-1,-1.1899562E-1,8.629367E-1,2.01594E0,-5.4055665E-2,-2.2851322E-2,-9.725964E-3,2.8753555E-3,9.126542E-3,3.0912336E-2,5.448643E-2,8.338159E-2],"categories":[],"categories_nodes":[],"categories_segments":[],"categories_sizes":[],"default_left":[0,0,0,0,0,0,0,0,0,0,0,0,0,0,0],"id":35,"left_children":[1,3,5,7,9,11,13,-1,-1,-1,-1,-1,-1,-1,-1],"loss_changes":[9.461345E2,1.1213231E2,1.2097107E2,2.2025421E1,1.905624E1,1.6763138E1,2.2930725E1,0E0,0E0,0E0,0E0,0E0,0E0,0E0,0E0],"parents":[2147483647,0,0,1,1,2,2,3,3,4,4,5,5,6,6],"right_children":[2,4,6,8,10,12,14,-1,-1,-1,-1,-1,-1,-1,-1],"split_conditions":[8.1989E0,5.514803E0,1.12734165E1,3.545264E0,6.526055E0,1.24E0,1.4019403E1,-5.4055665E-2,-2.2851322E-2,-9.725964E-3,2.8753555E-3,9.126542E-3,3.0912336E-2,5.448643E-2,8.338159E-2],"split_indices":[6,6,6,6,6,0,6,0,0,0,0,0,0,0,0],"split_type":[0,0,0,0,0,0,0,0,0,0,0,0,0,0,0],"sum_hessian":[1.407E3,1.032E3,3.75E2,5.77E2,4.55E2,2.14E2,1.61E2,2.2E1,5.55E2,2.36E2,2.19E2,4.3E1,1.71E2,1.21E2,4E1],"tree_param":{"num_deleted":"0","num_feature":"8","num_nodes":"15","size_leaf_vector":"1"}},{"base_weights":[3.7158038E-3,-4.41922E-1,1.4212826E0,-6.819701E-1,4.8946433E-2,9.833122E-1,2.030546E0,-3.1114109E-2,-1.7264027E-2,-2.8332546E-3,1.1652796E-2,-1.5574305E-2,3.157722E-2,6.396923E-2,-2.1907724E-2],"categories":[],"categories_nodes":[],"categories_segments":[],"categories_sizes":[],"default_left":[0,0,0,0,0,0,0,0,0,0,0,0,0,0,0],"id":36,"left_children":[1,3,5,7,9,11,13,-1,-1,-1,-1,-1,-1,-1,-1],"loss_changes":[8.9009174E2,1.26349335E2,8.792816E1,2.8167725E1,1.640073E1,1.2656143E1,1.8699402E1,0E0,0E0,0E0,0E0,0E0,0E0,0E0,0E0],"parents":[2147483647,0,0,1,1,2,2,3,3,4,4,5,5,6,6],"right_children":[2,4,6,8,10,12,14,-1,-1,-1,-1,-1,-1,-1,-1],"split_conditions":[8.672204E0,6.0803137E0,1.1586821E1,4.4498906E0,7.3956785E0,1.55E1,3.3563138E2,-3.1114109E-2,-1.7264027E-2,-2.8332546E-3,1.1652796E-2,-1.5574305E-2,3.157722E-2,6.396923E-2,-2.1907724E-2],"split_indices":[6,6,6,6,6,2,3,0,0,0,0,0,0,0,0],"split_type":[0,0,0,0,0,0,0,0,0,0,0,0,0,0,0],"sum_hessian":[1.407E3,1.071E3,3.36E2,7.19E2,3.52E2,1.97E2,1.39E2,1.93E2,5.26E2,2.47E2,1.05E2,5E0,1.92E2,1.37E2,2E0],"tree_param":{"num_deleted":"0","num_feature":"8","num_nodes":"15","size_leaf_vector":"1"}},{"base_weights":[3.6143516E-3,-4.2833796E-1,1.3776478E0,-7.3710126E-1,-6.69369E-2,8.9220375E-1,1.8965397E0,-5.1544677E-2,-2.148581E-2,-7.1565243E-3,7.6293224E-3,1.3794992E-2,3.267872E-2,5.1088717E-2,7.895067E-2],"categories":[],"categories_nodes":[],"categories_segments":[],"categories_sizes":[],"default_left":[0,0,0,0,0,0,0,0,0,0,0,0,0,0,0],"id":37,"left_children":[1,3,5,7,9,11,13,-1,-1,-1,-1,-1,-1,-1,-1],"loss_changes":[8.3626184E2,1.1957233E2,8.319586E1,2.0463531E1,2.5780245E1,1.2674759E1,2.1500854E1,0E0,0E0,0E0,0E0,0E0,0E0,0E0,0E0],"parents":[2147483647,0,0,1,1,2,2,3,3,4,4,5,5,6,6],"right_children":[2,4,6,8,10,12,14,-1,-1,-1,-1,-1,-1,-1,-1],"split_conditions":[8.672204E0,5.514803E0,1.12734165E1,3.545264E0,6.9723854E0,2.3989638E2,1.4019403E1,-5.1544677E-2,-2.148581E-2,-7.1565243E-3,7.6293224E-3,1.3794992E-2,3.267872E-2,5.1088717E-2,7.895067E-2],"split_indices":[6,6,6,6,6,3,6,0,0,0,0,0,0,0,0],"split_type":[0,0,0,0,0,0,0,0,0,0,0,0,0,0,0],"sum_hessian":[1.407E3,1.071E3,3.36E2,5.77E2,4.94E2,1.75E2,1.61E2,2.2E1,5.55E2,3.24E2,1.7E2,4.9E1,1.26E2,1.21E2,4E1],"tree_param":{"num_deleted":"0","num_feature":"8","num_nodes":"15","size_leaf_vector":"1"}},{"base_weights":[3.5767767E-3,-4.4712567E-1,1.2418003E0,-7.5581634E-1,-1.5045033E-1,7.861266E-1,1.8388871E0,-5.002503E-2,-2.197762E-2,-9.837799E-3,2.6883238E-3,7.6419506E-3,2.833279E-2,5.143614E-2,8.4679425E-2],"categories":[],"categories_nodes":[],"categories_segments":[],"categories_sizes":[],"default_left":[0,0,0,0,0,0,0,0,0,0,0,0,0,0,0],"id":38,"left_children":[1,3,5,7,9,11,13,-1,-1,-1,-1,-1,-1,-1,-1],"loss_changes":[7.863184E2,9.4489365E1,1.00855225E2,1.7611084E1,2.1201591E1,1.517392E1,2.0447021E1,0E0,0E0,0E0,0E0,0E0,0E0,0E0,0E0],"parents":[2147483647,0,0,1,1,2,2,3,3,4,4,5,5,6,6],"right_children":[2,4,6,8,10,12,14,-1,-1,-1,-1,-1,-1,-1,-1],"split_conditions":[8.1989E0,5.255264E0,1.12734165E1,3.545264E0,6.526055E0,1.24E0,1.49031925E1,-5.002503E-2,-2.197762E-2,-9.837799E-3,2.6883238E-3,7.6419506E-3,2.833279E-2,5.143614E-2,8.4679425E-2],"split_indices":[6,6,6,6,6,0,6,0,0,0,0,0,0,0,0],"split_type":[0,0,0,0,0,0,0,0,0,0,0,0,0,0,0],"sum_hessian":[1.407E3,1.032E3,3.75E2,5.05E2,5.27E2,2.14E2,1.61E2,2.2E1,4.83E2,3.08E2,2.19E2,4.3E1,1.71E2,1.38E2,2.3E1],"tree_param":{"num_deleted":"0","num_feature":"8","num_nodes":"15","size_leaf_vector":"1"}},{"base_weights":[3.5324057E-3,-4.0268067E-1,1.2956893E0,-6.123551E-1,6.856133E-2,8.9505523E-1,1.8530455E0,-3.0412711E-2,-1.5923621E-2,-2.5853198E-3,9.877076E-3,-1.6256329E-2,2.8807672E-2,5.8454994E-2,-2.3564253E-2],"categories":[],"categories_nodes":[],"categories_segments":[],"categories_sizes":[],"default_left":[0,0,0,0,0,0,0,0,0,0,0,0,0,0,0],"id":39,"left_children":[1,3,5,7,9,11,13,-1,-1,-1,-1,-1,-1,-1,-1],"loss_changes":[7.395683E2,1.05963486E2,7.359216E1,2.608078E1,1.2736724E1,1.16419525E1,1.7382019E1,0E0,0E0,0E0,0E0,0E0,0E0,0E0,0E0],"parents":[2147483647,0,0,1,1,2,2,3,3,4,4,5,5,6,6],"right_children":[2,4,6,8,10,12,14,-1,-1,-1,-1,-1,-1,-1,-1],"split_conditions":[8.672204E0,6.2124476E0,1.1586821E1,4.3483367E0,1.58E0,1.55E1,3.3563138E2,-3.0412711E-2,-1.5923621E-2,-2.5853198E-3,9.877076E-3,-1.6256329E-2,2.8807672E-2,5.8454994E-2,-2.3564253E-2],"split_indices":[6,6,6,6,0,2,3,0,0,0,0,0,0,0,0],"split_type":[0,0,0,0,0,0,0,0,0,0,0,0,0,0,0],"sum_hessian":[1.407E3,1.071E3,3.36E2,7.41E2,3.3E2,1.97E2,1.39E2,1.49E2,5.92E2,2.06E2,1.24E2,5E0,1.92E2,1.37E2,2E0],"tree_param":{"num_deleted":"0","num_feature":"8","num_nodes":"15","size_leaf_vector":"1"}},{"base_weights":[3.4293989E-3,-4.204472E-1,1.1679536E0,-7.1250427E-1,-1.3976291E-1,7.269246E-1,1.7155473E0,-4.765356E-2,-2.069466E-2,-9.169494E-3,2.5402438E-3,5.627217E-3,2.6566487E-2,4.669286E-2,7.4865855E-2],"categories":[],"categories_nodes":[],"categories_segments":[],"categories_sizes":[],"default_left":[0,0,0,0,0,0,0,0,0,0,0,0,0,0,0],"id":40,"left_children":[1,3,5,7,9,11,13,-1,-1,-1,-1,-1,-1,-1,-1],"loss_changes":[6.955004E2,8.458145E1,8.9558716E1,1.629071E1,1.8528286E1,1.5275307E1,2.0224274E1,0E0,0E0,0E0,0E0,0E0,0E0,0E0,0E0],"parents":[2147483647,0,0,1,1,2,2,3,3,4,4,5,5,6,6],"right_children":[2,4,6,8,10,12,14,-1,-1,-1,-1,-1,-1,-1,-1],"split_conditions":[8.1989E0,5.255264E0,1.1197558E1,3.545264E0,6.526055E0,1.24E0,1.43692255E1,-4.765356E-2,-2.069466E-2,-9.169494E-3,2.5402438E-3,5.627217E-3,2.6566487E-2,4.669286E-2,7.4865855E-2],"split_indices":[6,6,6,6,6,0,6,0,0,0,0,0,0,0,0],"split_type":[0,0,0,0,0,0,0,0,0,0,0,0,0,0,0],"sum_hessian":[1.407E3,1.032E3,3.75E2,5.05E2,5.27E2,2.09E2,1.66E2,2.2E1,4.83E2,3.08E2,2.19E2,4.2E1,1.67E2,1.32E2,3.4E1],"tree_param":{"num_deleted":"0","num_feature":"8","num_nodes":"15","size_leaf_vector":"1"}},{"base_weights":[3.3796886E-3,-4.0311489E-1,1.1448513E0,-6.756116E-1,-1.1474263E-1,7.147426E-1,1.6633981E0,-3.988797E-2,-1.9241245E-2,-6.974583E-3,5.6818123E-3,4.8039947E-3,2.6202112E-2,4.4634093E-2,7.057311E-2],"categories":[],"categories_nodes":[],"categories_segments":[],"categories_sizes":[],"default_left":[0,0,0,0,0,0,0,0,0,0,0,0,0,0,0],"id":41,"left_children":[1,3,5,7,9,11,13,-1,-1,-1,-1,-1,-1,-1,-1],"loss_changes":[6.5377637E2,8.156763E1,8.133276E1,1.6151215E1,1.6922037E1,1.5300377E1,1.9200745E1,0E0,0E0,0E0,0E0,0E0,0E0,0E0,0E0],"parents":[2147483647,0,0,1,1,2,2,3,3,4,4,5,5,6,6],"right_children":[2,4,6,8,10,12,14,-1,-1,-1,-1,-1,-1,-1,-1],"split_conditions":[8.243531E0,5.3437753E0,1.1197558E1,3.8725615E0,6.9723854E0,1.24E0,1.4019403E1,-3.988797E-2,-1.9241245E-2,-6.974583E-3,5.6818123E-3,4.8039947E-3,2.6202112E-2,4.4634093E-2,7.057311E-2],"split_indices":[6,6,6,6,6,0,6,0,0,0,0,0,0,0,0],"split_type":[0,0,0,0,0,0,0,0,0,0,0,0,0,0,0],"sum_hessian":[1.407E3,1.038E3,3.69E2,5.33E2,5.05E2,2.03E2,1.66E2,3.9E1,4.94E2,3.68E2,1.37E2,4E1,1.63E2,1.26E2,4E1],"tree_param":{"num_deleted":"0","num_feature":"8","num_nodes":"15","size_leaf_vector":"1"}},{"base_weights":[3.3365171E-3,-3.670039E-1,1.1813827E0,-6.3346595E-1,-5.5120867E-2,8.149028E-1,1.6912516E0,-3.3274423E-2,-1.7502602E-2,-4.925836E-3,1.0189595E-2,-1.7194156E-2,2.6302349E-2,5.3426143E-2,-2.4956644E-2],"categories":[],"categories_nodes":[],"categories_segments":[],"categories_sizes":[],"default_left":[0,0,0,0,0,0,0,0,0,0,0,0,0,0,0],"id":42,"left_children":[1,3,5,7,9,11,13,-1,-1,-1,-1,-1,-1,-1,-1],"loss_changes":[6.147131E2,8.9053635E1,6.159253E1,1.6303802E1,2.0041782E1,1.0928009E1,1.6148651E1,0E0,0E0,0E0,0E0,0E0,0E0,0E0,0E0],"parents":[2147483647,0,0,1,1,2,2,3,3,4,4,5,5,6,6],"right_children":[2,4,6,8,10,12,14,-1,-1,-1,-1,-1,-1,-1,-1],"split_conditions":[8.672204E0,5.514803E0,1.1586821E1,4.0656133E0,7.3956785E0,1.55E1,3.3563138E2,-3.3274423E-2,-1.7502602E-2,-4.925836E-3,1.0189595E-2,-1.7194156E-2,2.6302349E-2,5.3426143E-2,-2.4956644E-2],"split_indices":[6,6,6,6,6,2,3,0,0,0,0,0,0,0,0],"split_type":[0,0,0,0,0,0,0,0,0,0,0,0,0,0,0],"sum_hessian":[1.407E3,1.071E3,3.36E2,5.77E2,4.94E2,1.97E2,1.39E2,7.2E1,5.05E2,3.89E2,1.05E2,5E0,1.92E2,1.37E2,2E0],"tree_param":{"num_deleted":"0","num_feature":"8","num_nodes":"15","size_leaf_vector":"1"}},{"base_weights":[3.2281189E-3,-3.248439E-1,1.252802E0,-5.4265124E-1,1.0699045E-1,1.0300466E0,1.9747131E0,-2.4866404E-2,-1.3247138E-2,1.41784E-3,2.8476428E-2,4.3041307E-2,2.5142986E-2,2.8670538E-2,6.657502E-2],"categories":[],"categories_nodes":[],"categories_segments":[],"categories_sizes":[],"default_left":[0,0,0,0,0,0,0,0,0,0,0,0,0,0,0],"id":43,"left_children":[1,3,5,7,9,11,13,-1,-1,-1,-1,-1,-1,-1,-1],"loss_changes":[5.7761694E2,1.0502532E2,4.508319E1,2.177092E1,1.8641039E1,1.6606201E1,1.1149048E1,0E0,0E0,0E0,0E0,0E0,0E0,0E0,0E0],"parents":[2147483647,0,0,1,1,2,2,3,3,4,4,5,5,6,6],"right_children":[2,4,6,8,10,12,14,-1,-1,-1,-1,-1,-1,-1,-1],"split_conditions":[9.299078E0,6.2124476E0,1.3055325E1,4.538903E0,1.2E-1,2.15E1,6.86E0,-2.4866404E-2,-1.3247138E-2,1.41784E-3,2.8476428E-2,4.3041307E-2,2.5142986E-2,2.8670538E-2,6.657502E-2],"split_indices":[6,6,6,6,4,2,1,0,0,0,0,0,0,0,0],"split_type":[0,0,0,0,0,0,0,0,0,0,0,0,0,0,0],"sum_hessian":[1.407E3,1.115E3,2.92E2,7.41E2,3.74E2,2.25E2,6.7E1,2.2E2,5.21E2,3.49E2,2.5E1,8.1E1,1.44E2,1.1E1,5.6E1],"tree_param":{"num_deleted":"0","num_feature":"8","num_nodes":"15","size_leaf_vector":"1"}},{"base_weights":[3.2389043E-3,-4.1716865E-1,9.22992E-1,-6.5092504E-1,-1.9753832E-1,4.6482688E-1,1.4223821E0,-4.335852E-2,-1.881663E-2,-8.2957335E-3,2.1936807E-3,6.15839E-4,2.0493168E-2,5.2078724E-2,2.9126879E-2],"categories":[],"categories_nodes":[],"categories_segments":[],"categories_sizes":[],"default_left":[0,0,0,0,0,0,0,0,0,0,0,0,0,0,0],"id":44,"left_children":[1,3,5,7,9,11,13,-1,-1,-1,-1,-1,-1,-1,-1],"loss_changes":[5.4481805E2,4.9517197E1,1.0046982E2,1.3444061E1,9.640268E0,2.0633385E1,2.5324646E1,0E0,0E0,0E0,0E0,0E0,0E0,0E0,0E0],"parents":[2147483647,0,0,1,1,2,2,3,3,4,4,5,5,6,6],"right_children":[2,4,6,8,10,12,14,-1,-1,-1,-1,-1,-1,-1,-1],"split_conditions":[7.3956785E0,5.147749E0,1.0418147E1,3.545264E0,1.77E0,1.28E0,2.3E1,-4.335852E-2,-1.881663E-2,-8.2957335E-3,2.1936807E-3,6.15839E-4,2.0493168E-2,5.2078724E-2,2.9126879E-2],"split_indices":[6,6,6,6,0,0,2,0,0,0,0,0,0,0,0],"split_type":[0,0,0,0,0,0,0,0,0,0,0,0,0,0,0],"sum_hessian":[1.407E3,9.66E2,4.41E2,4.67E2,4.99E2,2.31E2,2.1E2,2.2E1,4.45E2,3.94E2,1.05E2,7.2E1,1.59E2,1.33E2,7.7E1],"tree_param":{"num_deleted":"0","num_feature":"8","num_nodes":"15","size_leaf_vector":"1"}},{"base_weights":[3.1631072E-3,-3.9705014E-1,9.1129625E-1,-6.3099515E-1,-1.8201433E-1,4.607028E-1,1.3789259E0,-4.2080227E-2,-1.8237965E-2,-8.190039E-3,2.01416E-3,1.058509E-3,2.0033577E-2,5.048552E-2,2.8240627E-2],"categories":[],"categories_nodes":[],"categories_segments":[],"categories_sizes":[],"default_left":[0,0,0,0,0,0,0,0,0,0,0,0,0,0,0],"id":45,"left_children":[1,3,5,7,9,11,13,-1,-1,-1,-1,-1,-1,-1,-1],"loss_changes":[5.120951E2,4.9084946E1,9.018112E1,1.2690201E1,1.0597755E1,1.7811668E1,2.3787598E1,0E0,0E0,0E0,0E0,0E0,0E0,0E0,0E0],"parents":[2147483647,0,0,1,1,2,2,3,3,4,4,5,5,6,6],"right_children":[2,4,6,8,10,12,14,-1,-1,-1,-1,-1,-1,-1,-1],"split_conditions":[7.4961395E0,5.147749E0,1.0418147E1,3.545264E0,1.58E0,1.28E0,2.3E1,-4.2080227E-2,-1.8237965E-2,-8.190039E-3,2.01416E-3,1.058509E-3,2.0033577E-2,5.048552E-2,2.8240627E-2],"split_indices":[6,6,6,6,0,0,2,0,0,0,0,0,0,0,0],"split_type":[0,0,0,0,0,0,0,0,0,0,0,0,0,0,0],"sum_hessian":[1.407E3,9.77E2,4.3E2,4.67E2,5.1E2,2.2E2,2.1E2,2.2E1,4.45E2,3.81E2,1.29E2,6.8E1,1.52E2,1.33E2,7.7E1],"tree_param":{"num_deleted":"0","num_feature":"8","num_nodes":"15","size_leaf_vector":"1"}},{"base_weights":[3.0893432E-3,-3.4579763E-1,9.8279333E-1,-5.943985E-1,-1.0958447E-1,6.180823E-1,1.4472489E0,-4.0839605E-2,-1.7212713E-2,-6.657297E-3,4.684611E-3,5.5984952E-3,2.2707677E-2,3.992596E-2,6.986228E-2],"categories":[],"categories_nodes":[],"categories_segments":[],"categories_sizes":[],"default_left":[0,0,0,0,0,0,0,0,0,0,0,0,0,0,0],"id":46,"left_children":[1,3,5,7,9,11,13,-1,-1,-1,-1,-1,-1,-1,-1],"loss_changes":[4.8160266E2,6.0947853E1,6.178058E1,1.2549194E1,1.4895554E1,1.0688904E1,1.7224976E1,0E0,0E0,0E0,0E0,0E0,0E0,0E0,0E0],"parents":[2147483647,0,0,1,1,2,2,3,3,4,4,5,5,6,6],"right_children":[2,4,6,8,10,12,14,-1,-1,-1,-1,-1,-1,-1,-1],"split_conditions":[8.243531E0,5.255264E0,1.12734165E1,3.545264E0,1.58E0,3.0033344E2,1.49031925E1,-4.0839605E-2,-1.7212713E-2,-6.657297E-3,4.684611E-3,5.5984952E-3,2.2707677E-2,3.992596E-2,6.986228E-2],"split_indices":[6,6,6,6,0,7,6,0,0,0,0,0,0,0,0],"split_type":[0,0,0,0,0,0,0,0,0,0,0,0,0,0,0],"sum_hessian":[1.407E3,1.038E3,3.69E2,5.05E2,5.33E2,2.08E2,1.61E2,2.2E1,4.83E2,3.79E2,1.54E2,4.5E1,1.63E2,1.38E2,2.3E1],"tree_param":{"num_deleted":"0","num_feature":"8","num_nodes":"15","size_leaf_vector":"1"}},{"base_weights":[3.0496137E-3,-3.8079923E-1,8.428206E-1,-5.933885E-1,-1.8105407E-1,4.2510012E-1,1.2981207E0,-3.9635565E-2,-1.7147738E-2,-7.5797383E-3,1.9221933E-3,5.294794E-4,1.8757092E-2,4.7707543E-2,2.6275665E-2],"categories":[],"categories_nodes":[],"categories_segments":[],"categories_sizes":[],"default_left":[0,0,0,0,0,0,0,0,0,0,0,0,0,0,0],"id":47,"left_children":[1,3,5,7,9,11,13,-1,-1,-1,-1,-1,-1,-1,-1],"loss_changes":[4.5418286E2,4.095494E1,8.351135E1,1.1291428E1,7.909857E0,1.7351551E1,2.2160095E1,0E0,0E0,0E0,0E0,0E0,0E0,0E0,0E0],"parents":[2147483647,0,0,1,1,2,2,3,3,4,4,5,5,6,6],"right_children":[2,4,6,8,10,12,14,-1,-1,-1,-1,-1,-1,-1,-1],"split_conditions":[7.3956785E0,5.147749E0,1.0418147E1,3.545264E0,1.77E0,1.28E0,2.3E1,-3.9635565E-2,-1.7147738E-2,-7.5797383E-3,1.9221933E-3,5.294794E-4,1.8757092E-2,4.7707543E-2,2.6275665E-2],"split_indices":[6,6,6,6,0,0,2,0,0,0,0,0,0,0,0],"split_type":[0,0,0,0,0,0,0,0,0,0,0,0,0,0,0],"sum_hessian":[1.407E3,9.66E2,4.41E2,4.67E2,4.99E2,2.31E2,2.1E2,2.2E1,4.45E2,3.94E2,1.05E2,7.2E1,1.59E2,1.33E2,7.7E1],"tree_param":{"num_deleted":"0","num_feature":"8","num_nodes":"15","size_leaf_vector":"1"}},{"base_weights":[2.977511E-3,-2.7903646E-1,1.077123E0,-4.687542E-1,9.7095795E-2,8.734189E-1,1.7382994E0,-2.4074793E-2,-1.2109648E-2,1.2886614E-3,2.5816688E-2,5.4569513E-2,2.455428E-2,2.3607787E-2,5.8947843E-2],"categories":[],"categories_nodes":[],"categories_segments":[],"categories_sizes":[],"default_left":[0,0,0,0,0,0,0,0,0,0,0,0,0,0,0],"id":48,"left_children":[1,3,5,7,9,11,13,-1,-1,-1,-1,-1,-1,-1,-1],"loss_changes":[4.2681763E2,7.968212E1,3.7944214E1,1.7275345E1,1.5317383E1,1.4154633E1,1.0054184E1,0E0,0E0,0E0,0E0,0E0,0E0,0E0,0E0],"parents":[2147483647,0,0,1,1,2,2,3,3,4,4,5,5,6,6],"right_children":[2,4,6,8,10,12,14,-1,-1,-1,-1,-1,-1,-1,-1],"split_conditions":[9.299078E0,6.2124476E0,1.3055325E1,4.3247466E0,1.2E-1,2.029576E2,6.86E0,-2.4074793E-2,-1.2109648E-2,1.2886614E-3,2.5816688E-2,5.4569513E-2,2.455428E-2,2.3607787E-2,5.8947843E-2],"split_indices":[6,6,6,6,4,3,1,0,0,0,0,0,0,0,0],"split_type":[0,0,0,0,0,0,0,0,0,0,0,0,0,0,0],"sum_hessian":[1.407E3,1.115E3,2.92E2,7.41E2,3.74E2,2.25E2,6.7E1,1.43E2,5.98E2,3.49E2,2.5E1,1.6E1,2.09E2,1.1E1,5.6E1],"tree_param":{"num_deleted":"0","num_feature":"8","num_nodes":"15","size_leaf_vector":"1"}},{"base_weights":[2.9941392E-3,-3.5850453E-1,7.93868E-1,-5.594806E-1,-1.6967396E-1,4.0046012E-1,1.2226678E0,-3.775725E-2,-1.6147932E-2,-7.14168E-3,1.9443355E-3,3.366876E-4,1.7743837E-2,3.06808E-2,5.1964268E-2],"categories":[],"categories_nodes":[],"categories_segments":[],"categories_sizes":[],"default_left":[0,0,0,0,0,0,0,0,0,0,0,0,0,0,0],"id":49,"left_children":[1,3,5,7,9,11,13,-1,-1,-1,-1,-1,-1,-1,-1],"loss_changes":[4.028316E2,3.6603134E1,7.4072754E1,1.0438538E1,7.233739E0,1.5829067E1,2.053595E1,0E0,0E0,0E0,0E0,0E0,0E0,0E0,0E0],"parents":[2147483647,0,0,1,1,2,2,3,3,4,4,5,5,6,6],"right_children":[2,4,6,8,10,12,14,-1,-1,-1,-1,-1,-1,-1,-1],"split_conditions":[7.3956785E0,5.147749E0,1.0418147E1,3.545264E0,1.77E0,1.28E0,1.3055325E1,-3.775725E-2,-1.6147932E-2,-7.14168E-3,1.9443355E-3,3.366876E-4,1.7743837E-2,3.06808E-2,5.1964268E-2],"split_indices":[6,6,6,6,0,0,6,0,0,0,0,0,0,0,0],"split_type":[0,0,0,0,0,0,0,0,0,0,0,0,0,0,0],"sum_hessian":[1.407E3,9.66E2,4.41E2,4.67E2,4.99E2,2.31E2,2.1E2,2.2E1,4.45E2,3.94E2,1.05E2,7.2E1,1.59E2,1.43E2,6.7E1],"tree_param":{"num_deleted":"0","num_feature":"8","num_nodes":"15","size_leaf_vector":"1"}},{"base_weights":[2.9314396E-3,-3.4751573E-1,7.6962715E-1,-5.423512E-1,-1.6445474E-1,3.8819486E-1,1.1853744E0,-3.1618834E-2,-1.5288004E-2,-6.922118E-3,1.8849658E-3,3.2645356E-4,1.7200345E-2,4.671691E-2,2.6942886E-2],"categories":[],"categories_nodes":[],"categories_segments":[],"categories_sizes":[],"default_left":[0,0,0,0,0,0,0,0,0,0,0,0,0,0,0],"id":50,"left_children":[1,3,5,7,9,11,13,-1,-1,-1,-1,-1,-1,-1,-1],"loss_changes":[3.7857788E2,3.440056E1,6.963193E1,9.977966E0,6.796422E0,1.4874092E1,2.0367126E1,0E0,0E0,0E0,0E0,0E0,0E0,0E0,0E0],"parents":[2147483647,0,0,1,1,2,2,3,3,4,4,5,5,6,6],"right_children":[2,4,6,8,10,12,14,-1,-1,-1,-1,-1,-1,-1,-1],"split_conditions":[7.3956785E0,5.147749E0,1.0418147E1,3.8725615E0,1.77E0,1.28E0,2.15E1,-3.1618834E-2,-1.5288004E-2,-6.922118E-3,1.8849658E-3,3.2645356E-4,1.7200345E-2,4.671691E-2,2.6942886E-2],"split_indices":[6,6,6,6,0,0,2,0,0,0,0,0,0,0,0],"split_type":[0,0,0,0,0,0,0,0,0,0,0,0,0,0,0],"sum_hessian":[1.407E3,9.66E2,4.41E2,4.67E2,4.99E2,2.31E2,2.1E2,3.9E1,4.28E2,3.94E2,1.05E2,7.2E1,1.59E2,1E2,1.1E2],"tree_param":{"num_deleted":"0","num_feature":"8","num_nodes":"15","size_leaf_vector":"1"}},{"base_weights":[2.86893E-3,-3.3072767E-1,7.5984013E-1,-5.196968E-1,-1.4528973E-1,3.846721E-1,1.1491876E0,-3.066864E-2,-1.4665319E-2,-6.2472043E-3,5.059565E-3,7.395698E-4,1.679245E-2,4.2612188E-2,2.2611469E-2],"categories":[],"categories_nodes":[],"categories_segments":[],"categories_sizes":[],"default_left":[0,0,0,0,0,0,0,0,0,0,0,0,0,0,0],"id":51,"left_children":[1,3,5,7,9,11,13,-1,-1,-1,-1,-1,-1,-1,-1],"loss_changes":[3.5580368E2,3.419561E1,6.2514404E1,9.624435E0,8.82476E0,1.275198E1,1.9445557E1,0E0,0E0,0E0,0E0,0E0,0E0,0E0,0E0],"parents":[2147483647,0,0,1,1,2,2,3,3,4,4,5,5,6,6],"right_children":[2,4,6,8,10,12,14,-1,-1,-1,-1,-1,-1,-1,-1],"split_conditions":[7.4961395E0,5.1902595E0,1.0418147E1,3.8725615E0,6E-2,1.28E0,2.3E1,-3.066864E-2,-1.4665319E-2,-6.2472043E-3,5.059565E-3,7.395698E-4,1.679245E-2,4.2612188E-2,2.2611469E-2],"split_indices":[6,6,6,6,4,0,2,0,0,0,0,0,0,0,0],"split_type":[0,0,0,0,0,0,0,0,0,0,0,0,0,0,0],"sum_hessian":[1.407E3,9.77E2,4.3E2,4.83E2,4.94E2,2.2E2,2.1E2,3.9E1,4.44E2,4.17E2,7.7E1,6.8E1,1.52E2,1.33E2,7.7E1],"tree_param":{"num_deleted":"0","num_feature":"8","num_nodes":"15","size_leaf_vector":"1"}},{"base_weights":[2.8061557E-3,-2.4698003E-1,9.5420057E-1,-4.1667855E-1,8.945539E-2,7.672149E-1,1.5616207E0,-2.4010235E-2,-1.118596E-2,1.455995E-3,2.8483829E-2,2.208144E-2,6.355578E-2,1.966385E-2,5.3281613E-2],"categories":[],"categories_nodes":[],"categories_segments":[],"categories_sizes":[],"default_left":[0,0,0,0,0,0,0,0,0,0,0,0,0,0,0],"id":52,"left_children":[1,3,5,7,9,11,13,-1,-1,-1,-1,-1,-1,-1,-1],"loss_changes":[3.3484006E2,6.375261E1,3.2080536E1,1.4169876E1,1.3170409E1,1.3388565E1,9.389481E0,0E0,0E0,0E0,0E0,0E0,0E0,0E0,0E0],"parents":[2147483647,0,0,1,1,2,2,3,3,4,4,5,5,6,6],"right_children":[2,4,6,8,10,12,14,-1,-1,-1,-1,-1,-1,-1,-1],"split_conditions":[9.299078E0,6.2124476E0,1.3055325E1,4.1318126E0,1.3E-1,3.2E-1,6.86E0,-2.4010235E-2,-1.118596E-2,1.455995E-3,2.8483829E-2,2.208144E-2,6.355578E-2,1.966385E-2,5.3281613E-2],"split_indices":[6,6,6,6,4,4,1,0,0,0,0,0,0,0,0],"split_type":[0,0,0,0,0,0,0,0,0,0,0,0,0,0,0],"sum_hessian":[1.407E3,1.115E3,2.92E2,7.41E2,3.74E2,2.25E2,6.7E1,9.4E1,6.47E2,3.57E2,1.7E1,2.18E2,7E0,1.1E1,5.6E1],"tree_param":{"num_deleted":"0","num_feature":"8","num_nodes":"15","size_leaf_vector":"1"}},{"base_weights":[2.8286704E-3,-3.1718567E-1,7.0294416E-1,-5.0444627E-1,-1.5658143E-1,3.5465208E-1,1.0825689E0,-3.409985E-2,-1.45051405E-2,-7.752055E-3,-9.597769E-4,1.3012721E-4,1.5790816E-2,2.985916E-2,5.9456326E-2],"categories":[],"categories_nodes":[],"categories_segments":[],"categories_sizes":[],"default_left":[0,0,0,0,0,0,0,0,0,0,0,0,0,0,0],"id":53,"left_children":[1,3,5,7,9,11,13,-1,-1,-1,-1,-1,-1,-1,-1],"loss_changes":[3.1568112E2,2.900338E1,5.8057404E1,8.563408E0,6.208085E0,1.2816153E1,1.8458405E1,0E0,0E0,0E0,0E0,0E0,0E0,0E0,0E0],"parents":[2147483647,0,0,1,1,2,2,3,3,4,4,5,5,6,6],"right_children":[2,4,6,8,10,12,14,-1,-1,-1,-1,-1,-1,-1,-1],"split_conditions":[7.3956785E0,5.093019E0,1.0418147E1,3.545264E0,6.2124476E0,1.28E0,1.49031925E1,-3.409985E-2,-1.45051405E-2,-7.752055E-3,-9.597769E-4,1.3012721E-4,1.5790816E-2,2.985916E-2,5.9456326E-2],"split_indices":[6,6,6,6,6,0,6,0,0,0,0,0,0,0,0],"split_type":[0,0,0,0,0,0,0,0,0,0,0,0,0,0,0],"sum_hessian":[1.407E3,9.66E2,4.41E2,4.45E2,5.21E2,2.31E2,2.1E2,2.2E1,4.23E2,2.96E2,2.25E2,7.2E1,1.59E2,1.87E2,2.3E1],"tree_param":{"num_deleted":"0","num_feature":"8","num_nodes":"15","size_leaf_vector":"1"}},{"base_weights":[2.775397E-3,-3.0746868E-1,6.8151575E-1,-4.8095205E-1,-1.4447331E-1,3.4378952E-1,1.0496247E0,-3.309451E-2,-1.3848572E-2,-6.1909473E-3,2.0653773E-3,1.2617769E-4,1.5307147E-2,4.196445E-2,2.3313627E-2],"categories":[],"categories_nodes":[],"categories_segments":[],"categories_sizes":[],"default_left":[0,0,0,0,0,0,0,0,0,0,0,0,0,0,0],"id":54,"left_children":[1,3,5,7,9,11,13,-1,-1,-1,-1,-1,-1,-1,-1],"loss_changes":[2.9669943E2,2.727436E1,5.4588608E1,8.297043E0,5.975849E0,1.2043005E1,1.8266663E1,0E0,0E0,0E0,0E0,0E0,0E0,0E0,0E0],"parents":[2147483647,0,0,1,1,2,2,3,3,4,4,5,5,6,6],"right_children":[2,4,6,8,10,12,14,-1,-1,-1,-1,-1,-1,-1,-1],"split_conditions":[7.3956785E0,5.147749E0,1.0418147E1,3.545264E0,1.77E0,1.28E0,2.15E1,-3.309451E-2,-1.3848572E-2,-6.1909473E-3,2.0653773E-3,1.2617769E-4,1.5307147E-2,4.196445E-2,2.3313627E-2],"split_indices":[6,6,6,6,0,0,2,0,0,0,0,0,0,0,0],"split_type":[0,0,0,0,0,0,0,0,0,0,0,0,0,0,0],"sum_hessian":[1.407E3,9.66E2,4.41E2,4.67E2,4.99E2,2.31E2,2.1E2,2.2E1,4.45E2,3.94E2,1.05E2,7.2E1,1.59E2,1E2,1.1E2],"tree_param":{"num_deleted":"0","num_feature":"8","num_nodes":"15","size_leaf_vector":"1"}},{"base_weights":[2.7109268E-3,-2.253357E-1,8.713025E-1,-3.8038266E-1,8.2051404E-2,6.957297E-1,1.4420108E0,-1.8474128E-2,-9.317674E-3,1.7635301E-3,4.2519256E-2,1.9925306E-2,6.033581E-2,1.73383E-2,4.9373098E-2],"categories":[],"categories_nodes":[],"categories_segments":[],"categories_sizes":[],"default_left":[0,0,0,0,0,0,0,0,0,0,0,0,0,0,0],"id":55,"left_children":[1,3,5,7,9,11,13,-1,-1,-1,-1,-1,-1,-1,-1],"loss_changes":[2.7909213E2,5.3219143E1,2.835559E1,1.2506126E1,1.2004475E1,1.2784981E1,8.659103E0,0E0,0E0,0E0,0E0,0E0,0E0,0E0,0E0],"parents":[2147483647,0,0,1,1,2,2,3,3,4,4,5,5,6,6],"right_children":[2,4,6,8,10,12,14,-1,-1,-1,-1,-1,-1,-1,-1],"split_conditions":[9.299078E0,6.2124476E0,1.3055325E1,4.4498906E0,2.4E-1,3.2E-1,6.86E0,-1.8474128E-2,-9.317674E-3,1.7635301E-3,4.2519256E-2,1.9925306E-2,6.033581E-2,1.73383E-2,4.9373098E-2],"split_indices":[6,6,6,6,4,4,1,0,0,0,0,0,0,0,0],"split_type":[0,0,0,0,0,0,0,0,0,0,0,0,0,0,0],"sum_hessian":[1.407E3,1.115E3,2.92E2,7.41E2,3.74E2,2.25E2,6.7E1,1.93E2,5.48E2,3.68E2,6E0,2.18E2,7E0,1.1E1,5.6E1],"tree_param":{"num_deleted":"0","num_feature":"8","num_nodes":"15","size_leaf_vector":"1"}},{"base_weights":[2.7436297E-3,-2.8427544E-1,6.540241E-1,-4.4789174E-1,-1.23720765E-1,3.9607447E-1,1.0799031E0,-3.157416E-2,-1.2890525E-2,-5.4611037E-3,5.0658174E-3,1.2500597E-3,1.5746947E-2,2.9247358E-2,5.5282876E-2],"categories":[],"categories_nodes":[],"categories_segments":[],"categories_sizes":[],"default_left":[0,0,0,0,0,0,0,0,0,0,0,0,0,0,0],"id":56,"left_children":[1,3,5,7,9,11,13,-1,-1,-1,-1,-1,-1,-1,-1],"loss_changes":[2.6338327E2,2.5636024E1,4.691992E1,7.8503036E0,7.6524057E0,1.10009575E1,1.3444E1,0E0,0E0,0E0,0E0,0E0,0E0,0E0,0E0],"parents":[2147483647,0,0,1,1,2,2,3,3,4,4,5,5,6,6],"right_children":[2,4,6,8,10,12,14,-1,-1,-1,-1,-1,-1,-1,-1],"split_conditions":[7.4961395E0,5.1902595E0,1.12734165E1,3.545264E0,6E-2,1.24E0,1.49031925E1,-3.157416E-2,-1.2890525E-2,-5.4611037E-3,5.0658174E-3,1.2500597E-3,1.5746947E-2,2.9247358E-2,5.5282876E-2],"split_indices":[6,6,6,6,4,0,6,0,0,0,0,0,0,0,0],"split_type":[0,0,0,0,0,0,0,0,0,0,0,0,0,0,0],"sum_hessian":[1.407E3,9.77E2,4.3E2,4.83E2,4.94E2,2.69E2,1.61E2,2.2E1,4.61E2,4.17E2,7.7E1,6.6E1,2.03E2,1.38E2,2.3E1],"tree_param":{"num_deleted":"0","num_feature":"8","num_nodes":"15","size_leaf_vector":"1"}},{"base_weights":[2.6992643E-3,-1.9972351E-1,8.724983E-1,-3.5822085E-1,9.3323104E-2,7.0121497E-1,1.3609229E0,-1.8856011E-2,-9.144034E-3,2.355089E-3,5.416061E-2,1.9987652E-2,5.79198E-2,1.5955199E-2,4.6682645E-2],"categories":[],"categories_nodes":[],"categories_segments":[],"categories_sizes":[],"default_left":[0,0,0,0,0,0,0,0,0,0,0,0,0,0,0],"id":57,"left_children":[1,3,5,7,9,11,13,-1,-1,-1,-1,-1,-1,-1,-1],"loss_changes":[2.4807678E2,5.3122463E1,2.129898E1,1.1398102E1,1.1179304E1,1.1142593E1,8.0269165E0,0E0,0E0,0E0,0E0,0E0,0E0,0E0,0E0],"parents":[2147483647,0,0,1,1,2,2,3,3,4,4,5,5,6,6],"right_children":[2,4,6,8,10,12,14,-1,-1,-1,-1,-1,-1,-1,-1],"split_conditions":[9.645902E0,6.2124476E0,1.3055325E1,4.3247466E0,3E-1,3.2E-1,6.86E0,-1.8856011E-2,-9.144034E-3,2.355089E-3,5.416061E-2,1.9987652E-2,5.79198E-2,1.5955199E-2,4.6682645E-2],"split_indices":[6,6,6,6,4,4,1,0,0,0,0,0,0,0,0],"split_type":[0,0,0,0,0,0,0,0,0,0,0,0,0,0,0],"sum_hessian":[1.407E3,1.142E3,2.65E2,7.41E2,4.01E2,1.98E2,6.7E1,1.43E2,5.98E2,3.98E2,3E0,1.91E2,7E0,1.1E1,5.6E1],"tree_param":{"num_deleted":"0","num_feature":"8","num_nodes":"15","size_leaf_vector":"1"}},{"base_weights":[2.7360457E-3,-2.7288035E-1,6.057187E-1,-4.4443837E-1,-1.4144923E-1,3.6663735E-1,1.0166825E0,-3.238795E-2,-1.2827664E-2,-6.2014353E-3,4.0421795E-4,5.977529E-4,1.4848444E-2,2.7489543E-2,5.23105E-2],"categories":[],"categories_nodes":[],"categories_segments":[],"categories_sizes":[],"default_left":[0,0,0,0,0,0,0,0,0,0,0,0,0,0,0],"id":58,"left_children":[1,3,5,7,9,11,13,-1,-1,-1,-1,-1,-1,-1,-1],"loss_changes":[2.341635E2,2.1741096E1,4.3055405E1,6.7415543E0,5.072834E0,1.1222324E1,1.2245041E1,0E0,0E0,0E0,0E0,0E0,0E0,0E0,0E0],"parents":[2147483647,0,0,1,1,2,2,3,3,4,4,5,5,6,6],"right_children":[2,4,6,8,10,12,14,-1,-1,-1,-1,-1,-1,-1,-1],"split_conditions":[7.3956785E0,5.0215387E0,1.12734165E1,3.2000182E0,6.526055E0,1.24E0,1.49031925E1,-3.238795E-2,-1.2827664E-2,-6.2014353E-3,4.0421795E-4,5.977529E-4,1.4848444E-2,2.7489543E-2,5.23105E-2],"split_indices":[6,6,6,6,6,0,6,0,0,0,0,0,0,0,0],"split_type":[0,0,0,0,0,0,0,0,0,0,0,0,0,0,0],"sum_hessian":[1.407E3,9.66E2,4.41E2,4.18E2,5.48E2,2.8E2,1.61E2,1.7E1,4.01E2,3.95E2,1.53E2,7E1,2.1E2,1.38E2,2.3E1],"tree_param":{"num_deleted":"0","num_feature":"8","num_nodes":"15","size_leaf_vector":"1"}},{"base_weights":[2.6830714E-3,-2.5973022E-1,5.9812975E-1,-4.0308744E-1,-1.0582224E-1,3.632892E-1,9.858385E-1,-2.3525469E-2,-1.1155197E-2,-4.8786593E-3,4.989437E-3,1.0413263E-3,1.4478058E-2,3.1387772E-2,-3.3185124E-2],"categories":[],"categories_nodes":[],"categories_segments":[],"categories_sizes":[],"default_left":[0,0,0,0,0,0,0,0,0,0,0,0,0,0,0],"id":59,"left_children":[1,3,5,7,9,11,13,-1,-1,-1,-1,-1,-1,-1,-1],"loss_changes":[2.2015977E2,2.1535759E1,3.8884293E1,7.226364E0,6.6684237E0,9.453575E0,1.1958939E1,0E0,0E0,0E0,0E0,0E0,0E0,0E0,0E0],"parents":[2147483647,0,0,1,1,2,2,3,3,4,4,5,5,6,6],"right_children":[2,4,6,8,10,12,14,-1,-1,-1,-1,-1,-1,-1,-1],"split_conditions":[7.4961395E0,5.255264E0,1.12734165E1,3.9629657E0,6E-2,1.24E0,3.3563138E2,-2.3525469E-2,-1.1155197E-2,-4.8786593E-3,4.989437E-3,1.0413263E-3,1.4478058E-2,3.1387772E-2,-3.3185124E-2],"split_indices":[6,6,6,6,4,0,3,0,0,0,0,0,0,0,0],"split_type":[0,0,0,0,0,0,0,0,0,0,0,0,0,0,0],"sum_hessian":[1.407E3,9.77E2,4.3E2,5.05E2,4.72E2,2.69E2,1.61E2,5E1,4.55E2,3.95E2,7.7E1,6.6E1,2.03E2,1.59E2,2E0],"tree_param":{"num_deleted":"0","num_feature":"8","num_nodes":"15","size_leaf_vector":"1"}},{"base_weights":[2.5855685E-3,-1.826222E-1,7.984122E-1,-3.2864794E-1,8.225153E-2,1.1251335E0,5.644137E-1,-1.943106E-2,-8.739671E-3,2.0343151E-3,5.2488193E-2,2.7231952E-2,6.322995E-2,7.247137E-3,2.3770057E-2],"categories":[],"categories_nodes":[],"categories_segments":[],"categories_sizes":[],"default_left":[0,0,0,0,0,0,0,0,0,0,0,0,0,0,0],"id":60,"left_children":[1,3,5,7,9,11,13,-1,-1,-1,-1,-1,-1,-1,-1],"loss_changes":[2.0767554E2,4.4236423E1,1.9701279E1,9.851204E0,1.0606356E1,2.2806747E1,1.0509045E1,0E0,0E0,0E0,0E0,0E0,0E0,0E0,0E0],"parents":[2147483647,0,0,1,1,2,2,3,3,4,4,5,5,6,6],"right_children":[2,4,6,8,10,12,14,-1,-1,-1,-1,-1,-1,-1,-1],"split_conditions":[9.645902E0,6.186563E0,2.15E1,4.1318126E0,3E-1,9.875103E2,6.92E0,-1.943106E-2,-8.739671E-3,2.0343151E-3,5.2488193E-2,2.7231952E-2,6.322995E-2,7.247137E-3,2.3770057E-2],"split_indices":[6,6,2,6,4,7,1,0,0,0,0,0,0,0,0],"split_type":[0,0,0,0,0,0,0,0,0,0,0,0,0,0,0],"sum_hessian":[1.407E3,1.142E3,2.65E2,7.36E2,4.06E2,1.09E2,1.56E2,9.4E1,6.42E2,4.03E2,3E0,8.8E1,2.1E1,6.1E1,9.5E1],"tree_param":{"num_deleted":"0","num_feature":"8","num_nodes":"15","size_leaf_vector":"1"}},{"base_weights":[2.6107987E-3,-2.4476011E-1,5.639243E-1,-4.1921976E-1,-1.3078676E-1,4.392581E-1,1.2229624E0,-3.0194694E-2,-1.2043661E-2,-5.556398E-3,1.8422642E-3,1.2317677E-2,6.0341123E-2,1.3367082E-2,4.215465E-2],"categories":[],"categories_nodes":[],"categories_segments":[],"categories_sizes":[],"default_left":[0,0,0,0,0,0,0,0,0,0,0,0,0,0,0],"id":61,"left_children":[1,3,5,7,9,11,13,-1,-1,-1,-1,-1,-1,-1,-1],"loss_changes":[1.9564253E2,1.9391483E1,3.4873672E1,5.7767105E0,5.6026897E0,2.111734E1,7.1735077E0,0E0,0E0,0E0,0E0,0E0,0E0,0E0,0E0],"parents":[2147483647,0,0,1,1,2,2,3,3,4,4,5,5,6,6],"right_children":[2,4,6,8,10,12,14,-1,-1,-1,-1,-1,-1,-1,-1],"split_conditions":[7.4961395E0,4.9510174E0,1.3055325E1,3.2000182E0,1.77E0,3.2E-1,6.86E0,-3.0194694E-2,-1.2043661E-2,-5.556398E-3,1.8422642E-3,1.2317677E-2,6.0341123E-2,1.3367082E-2,4.215465E-2],"split_indices":[6,6,6,6,0,4,1,0,0,0,0,0,0,0,0],"split_type":[0,0,0,0,0,0,0,0,0,0,0,0,0,0,0],"sum_hessian":[1.407E3,9.77E2,4.3E2,3.85E2,5.92E2,3.63E2,6.7E1,1.7E1,3.68E2,4.7E2,1.22E2,3.55E2,8E0,1.1E1,5.6E1],"tree_param":{"num_deleted":"0","num_feature":"8","num_nodes":"15","size_leaf_vector":"1"}},{"base_weights":[2.5887454E-3,-1.7237574E-1,7.544001E-1,-2.9028878E-1,1.1899882E-1,1.0696453E0,5.2872247E-1,-1.3662574E-2,-6.2976424E-3,-3.2932248E-2,4.447229E-3,2.8570319E-2,7.915559E-2,6.6205217E-3,2.237565E-2],"categories":[],"categories_nodes":[],"categories_segments":[],"categories_sizes":[],"default_left":[0,0,0,0,0,0,0,0,0,0,0,0,0,0,0],"id":62,"left_children":[1,3,5,7,9,11,13,-1,-1,-1,-1,-1,-1,-1,-1],"loss_changes":[1.8533875E2,3.930444E1,1.8358704E1,1.0614677E1,1.0063404E1,2.1142311E1,9.565094E0,0E0,0E0,0E0,0E0,0E0,0E0,0E0,0E0],"parents":[2147483647,0,0,1,1,2,2,3,3,4,4,5,5,6,6],"right_children":[2,4,6,8,10,12,14,-1,-1,-1,-1,-1,-1,-1,-1],"split_conditions":[9.645902E0,6.526055E0,2.15E1,4.6895456E0,5.7E-1,1.7E-1,6.92E0,-1.3662574E-2,-6.2976424E-3,-3.2932248E-2,4.447229E-3,2.8570319E-2,7.915559E-2,6.6205217E-3,2.237565E-2],"split_indices":[6,6,2,6,0,4,1,0,0,0,0,0,0,0,0],"split_type":[0,0,0,0,0,0,0,0,0,0,0,0,0,0,0],"sum_hessian":[1.407E3,1.142E3,2.65E2,8.13E2,3.29E2,1.09E2,1.56E2,2.91E2,5.22E2,6E0,3.23E2,1.01E2,8E0,6.1E1,9.5E1],"tree_param":{"num_deleted":"0","num_feature":"8","num_nodes":"15","size_leaf_vector":"1"}},{"base_weights":[2.5715497E-3,-1.6710521E-1,7.316617E-1,-3.0052537E-1,7.490398E-2,1.037656E0,5.1261055E-1,-1.8600965E-2,-8.0493055E-3,1.8240818E-3,5.0678674E-2,2.4958152E-2,5.8947217E-2,4.2354435E-2,1.3509004E-2],"categories":[],"categories_nodes":[],"categories_segments":[],"categories_sizes":[],"default_left":[0,0,0,0,0,0,0,0,0,0,0,0,0,0,0],"id":63,"left_children":[1,3,5,7,9,11,13,-1,-1,-1,-1,-1,-1,-1,-1],"loss_changes":[1.7430547E2,3.6928722E1,1.7297638E1,8.633781E0,9.945345E0,2.0383606E1,9.450771E0,0E0,0E0,0E0,0E0,0E0,0E0,0E0,0E0],"parents":[2147483647,0,0,1,1,2,2,3,3,4,4,5,5,6,6],"right_children":[2,4,6,8,10,12,14,-1,-1,-1,-1,-1,-1,-1,-1],"split_conditions":[9.645902E0,6.186563E0,2.15E1,4.0880775E0,3E-1,9.875103E2,8.8E-1,-1.8600965E-2,-8.0493055E-3,1.8240818E-3,5.0678674E-2,2.4958152E-2,5.8947217E-2,4.2354435E-2,1.3509004E-2],"split_indices":[6,6,2,6,4,7,0,0,0,0,0,0,0,0,0],"split_type":[0,0,0,0,0,0,0,0,0,0,0,0,0,0,0],"sum_hessian":[1.407E3,1.142E3,2.65E2,7.36E2,4.06E2,1.09E2,1.56E2,8.3E1,6.53E2,4.03E2,3E0,8.8E1,2.1E1,1.1E1,1.45E2],"tree_param":{"num_deleted":"0","num_feature":"8","num_nodes":"15","size_leaf_vector":"1"}},{"base_weights":[2.610005E-3,-2.0113708E-1,5.747468E-1,-3.153533E-1,-1.4883556E-2,4.4815466E-1,1.1303743E0,-1.8410865E-2,-8.507162E-3,-1.7063878E-2,6.5842544E-4,1.243992E-2,5.7288814E-2,1.20775495E-2,3.9021637E-2],"categories":[],"categories_nodes":[],"categories_segments":[],"categories_sizes":[],"default_left":[0,0,0,0,0,0,0,0,0,0,0,0,0,0,0],"id":64,"left_children":[1,3,5,7,9,11,13,-1,-1,-1,-1,-1,-1,-1,-1],"loss_changes":[1.6424785E2,2.2098137E1,2.5518501E1,6.979927E0,7.744487E0,1.8291084E1,6.316185E0,0E0,0E0,0E0,0E0,0E0,0E0,0E0,0E0],"parents":[2147483647,0,0,1,1,2,2,3,3,4,4,5,5,6,6],"right_children":[2,4,6,8,10,12,14,-1,-1,-1,-1,-1,-1,-1,-1],"split_conditions":[8.243531E0,5.848404E0,1.3055325E1,4.0792184E0,1.473362E2,3.2E-1,6.86E0,-1.8410865E-2,-8.507162E-3,-1.7063878E-2,6.5842544E-4,1.243992E-2,5.7288814E-2,1.20775495E-2,3.9021637E-2],"split_indices":[6,6,6,6,7,4,1,0,0,0,0,0,0,0,0],"split_type":[0,0,0,0,0,0,0,0,0,0,0,0,0,0,0],"sum_hessian":[1.407E3,1.038E3,3.69E2,6.43E2,3.95E2,3.02E2,6.7E1,7.7E1,5.66E2,2.4E1,3.71E2,2.94E2,8E0,1.1E1,5.6E1],"tree_param":{"num_deleted":"0","num_feature":"8","num_nodes":"15","size_leaf_vector":"1"}},{"base_weights":[2.5846602E-3,-1.5750551E-1,6.9048125E-1,-2.654039E-1,1.0912113E-1,9.857397E-1,4.7921428E-1,-1.3550379E-2,-6.1686207E-3,-3.165958E-2,4.1096434E-3,2.6198966E-2,7.442231E-2,4.0464915E-2,1.2557406E-2],"categories":[],"categories_nodes":[],"categories_segments":[],"categories_sizes":[],"default_left":[0,0,0,0,0,0,0,0,0,0,0,0,0,0,0],"id":65,"left_children":[1,3,5,7,9,11,13,-1,-1,-1,-1,-1,-1,-1,-1],"loss_changes":[1.5516544E2,3.2911453E1,1.6120262E1,9.1684E0,9.2161E0,1.928154E1,8.862377E0,0E0,0E0,0E0,0E0,0E0,0E0,0E0,0E0],"parents":[2147483647,0,0,1,1,2,2,3,3,4,4,5,5,6,6],"right_children":[2,4,6,8,10,12,14,-1,-1,-1,-1,-1,-1,-1,-1],"split_conditions":[9.645902E0,6.526055E0,2.15E1,4.538903E0,5.7E-1,1.7E-1,8.8E-1,-1.3550379E-2,-6.1686207E-3,-3.165958E-2,4.1096434E-3,2.6198966E-2,7.442231E-2,4.0464915E-2,1.2557406E-2],"split_indices":[6,6,2,6,0,4,0,0,0,0,0,0,0,0,0],"split_type":[0,0,0,0,0,0,0,0,0,0,0,0,0,0,0],"sum_hessian":[1.407E3,1.142E3,2.65E2,8.13E2,3.29E2,1.09E2,1.56E2,2.2E2,5.93E2,6E0,3.23E2,1.01E2,8E0,1.1E1,1.45E2],"tree_param":{"num_deleted":"0","num_feature":"8","num_nodes":"15","size_leaf_vector":"1"}},{"base_weights":[2.5806194E-3,-2.1517612E-1,4.7897923E-1,-3.7289202E-1,-1.2226224E-1,3.7036845E-1,1.070892E0,-2.7446164E-2,-1.0617571E-2,-5.4486725E-3,7.586702E-4,1.0178784E-2,5.5540644E-2,1.12413755E-2,3.7010483E-2],"categories":[],"categories_nodes":[],"categories_segments":[],"categories_sizes":[],"default_left":[0,0,0,0,0,0,0,0,0,0,0,0,0,0,0],"id":66,"left_children":[1,3,5,7,9,11,13,-1,-1,-1,-1,-1,-1,-1,-1],"loss_changes":[1.4616759E2,1.4124825E1,2.8018723E1,4.958164E0,4.888626E0,2.0946907E1,5.798935E0,0E0,0E0,0E0,0E0,0E0,0E0,0E0,0E0],"parents":[2147483647,0,0,1,1,2,2,3,3,4,4,5,5,6,6],"right_children":[2,4,6,8,10,12,14,-1,-1,-1,-1,-1,-1,-1,-1],"split_conditions":[7.3956785E0,4.8744283E0,1.3055325E1,3.2000182E0,5E-2,3.2E-1,6.86E0,-2.7446164E-2,-1.0617571E-2,-5.4486725E-3,7.586702E-4,1.0178784E-2,5.5540644E-2,1.12413755E-2,3.7010483E-2],"split_indices":[6,6,6,6,4,4,1,0,0,0,0,0,0,0,0],"split_type":[0,0,0,0,0,0,0,0,0,0,0,0,0,0,0],"sum_hessian":[1.407E3,9.66E2,4.41E2,3.57E2,6.09E2,3.74E2,6.7E1,1.7E1,3.4E2,4.44E2,1.65E2,3.65E2,9E0,1.1E1,5.6E1],"tree_param":{"num_deleted":"0","num_feature":"8","num_nodes":"15","size_leaf_vector":"1"}},{"base_weights":[2.5518166E-3,-1.4876513E-1,6.5275E-1,-2.7334914E-1,5.4634467E-2,9.376849E-1,4.4895643E-1,-1.6654551E-2,-7.3075136E-3,1.2502905E-3,4.8098773E-2,2.4860406E-2,7.148966E-2,3.8689446E-2,1.1700456E-2],"categories":[],"categories_nodes":[],"categories_segments":[],"categories_sizes":[],"default_left":[0,0,0,0,0,0,0,0,0,0,0,0,0,0,0],"id":67,"left_children":[1,3,5,7,9,11,13,-1,-1,-1,-1,-1,-1,-1,-1],"loss_changes":[1.3862459E2,2.8978937E1,1.5025078E1,6.736454E0,9.153332E0,1.8056847E1,8.301741E0,0E0,0E0,0E0,0E0,0E0,0E0,0E0,0E0],"parents":[2147483647,0,0,1,1,2,2,3,3,4,4,5,5,6,6],"right_children":[2,4,6,8,10,12,14,-1,-1,-1,-1,-1,-1,-1,-1],"split_conditions":[9.645902E0,6.0451427E0,2.15E1,4.0880775E0,3E-1,1.7E-1,8.8E-1,-1.6654551E-2,-7.3075136E-3,1.2502905E-3,4.8098773E-2,2.4860406E-2,7.148966E-2,3.8689446E-2,1.1700456E-2],"split_indices":[6,6,2,6,4,4,0,0,0,0,0,0,0,0,0],"split_type":[0,0,0,0,0,0,0,0,0,0,0,0,0,0,0],"sum_hessian":[1.407E3,1.142E3,2.65E2,7.08E2,4.34E2,1.09E2,1.56E2,8.3E1,6.25E2,4.31E2,3E0,1.01E2,8E0,1.1E1,1.45E2],"tree_param":{"num_deleted":"0","num_feature":"8","num_nodes":"15","size_leaf_vector":"1"}},{"base_weights":[2.5954088E-3,-1.5329339E-1,5.963473E-1,-2.8036037E-1,2.003523E-2,8.754527E-1,4.031479E-1,-2.4147647E-2,-8.054052E-3,-3.0381728E-3,5.983628E-3,2.0910678E-2,5.2808065E-2,3.7398495E-2,1.0358003E-2],"categories":[],"categories_nodes":[],"categories_segments":[],"categories_sizes":[],"default_left":[0,0,0,0,0,0,0,0,0,0,0,0,0,0,0],"id":68,"left_children":[1,3,5,7,9,11,13,-1,-1,-1,-1,-1,-1,-1,-1],"loss_changes":[1.3041486E2,2.4584791E1,1.5446503E1,5.9684753E0,9.786173E0,1.8481949E1,9.104979E0,0E0,0E0,0E0,0E0,0E0,0E0,0E0,0E0],"parents":[2147483647,0,0,1,1,2,2,3,3,4,4,5,5,6,6],"right_children":[2,4,6,8,10,12,14,-1,-1,-1,-1,-1,-1,-1,-1],"split_conditions":[9.299078E0,5.848404E0,2.15E1,3.545264E0,5E-2,9.875103E2,8.8E-1,-2.4147647E-2,-8.054052E-3,-3.0381728E-3,5.983628E-3,2.0910678E-2,5.2808065E-2,3.7398495E-2,1.0358003E-2],"split_indices":[6,6,2,6,4,7,0,0,0,0,0,0,0,0,0],"split_type":[0,0,0,0,0,0,0,0,0,0,0,0,0,0,0],"sum_hessian":[1.407E3,1.115E3,2.92E2,6.43E2,4.72E2,1.18E2,1.74E2,2.2E1,6.21E2,2.81E2,1.91E2,9.7E1,2.1E1,1.2E1,1.62E2],"tree_param":{"num_deleted":"0","num_feature":"8","num_nodes":"15","size_leaf_vector":"1"}},{"base_weights":[2.581087E-3,-1.3992126E-1,6.149029E-1,-2.3578793E-1,9.697386E-2,7.3001313E-1,1.7020348E-1,-1.1253045E-2,-5.0284164E-3,-4.9613607E-3,6.1766217E-3,1.9309238E-2,3.9129652E-2,8.5382825E-3,-1.5574634E-2],"categories":[],"categories_nodes":[],"categories_segments":[],"categories_sizes":[],"default_left":[0,0,0,0,0,0,0,0,0,0,0,0,0,0,0],"id":69,"left_children":[1,3,5,7,9,11,13,-1,-1,-1,-1,-1,-1,-1,-1],"loss_changes":[1.2294431E2,2.5980791E1,1.3492149E1,7.5868073E0,8.835522E0,1.0991623E1,4.1805773E0,0E0,0E0,0E0,0E0,0E0,0E0,0E0,0E0],"parents":[2147483647,0,0,1,1,2,2,3,3,4,4,5,5,6,6],"right_children":[2,4,6,8,10,12,14,-1,-1,-1,-1,-1,-1,-1,-1],"split_conditions":[9.645902E0,6.526055E0,2.4E1,4.6895456E0,2.5453336E2,1.43692255E1,1.653E1,-1.1253045E-2,-5.0284164E-3,-4.9613607E-3,6.1766217E-3,1.9309238E-2,3.9129652E-2,8.5382825E-3,-1.5574634E-2],"split_indices":[6,6,2,6,7,6,5,0,0,0,0,0,0,0,0],"split_type":[0,0,0,0,0,0,0,0,0,0,0,0,0,0,0],"sum_hessian":[1.407E3,1.142E3,2.65E2,8.13E2,3.29E2,2.1E2,5.5E1,2.91E2,5.22E2,9.4E1,2.35E2,1.78E2,3.2E1,4.8E1,7E0],"tree_param":{"num_deleted":"0","num_feature":"8","num_nodes":"15","size_leaf_vector":"1"}},{"base_weights":[2.5272784E-3,-1.8783355E-1,4.3447706E-1,-3.086813E-1,-8.6359E-2,3.3462536E-1,9.6258795E-1,-1.4439454E-2,-7.21369E-3,-3.8626E-3,3.9898604E-3,9.221929E-3,5.2361306E-2,2.590482E-2,5.466308E-2],"categories":[],"categories_nodes":[],"categories_segments":[],"categories_sizes":[],"default_left":[0,0,0,0,0,0,0,0,0,0,0,0,0,0,0],"id":70,"left_children":[1,3,5,7,9,11,13,-1,-1,-1,-1,-1,-1,-1,-1],"loss_changes":[1.1585626E2,1.1966526E1,2.2405716E1,5.209778E0,4.4975543E0,1.7084019E1,5.2438393E0,0E0,0E0,0E0,0E0,0E0,0E0,0E0,0E0],"parents":[2147483647,0,0,1,1,2,2,3,3,4,4,5,5,6,6],"right_children":[2,4,6,8,10,12,14,-1,-1,-1,-1,-1,-1,-1,-1],"split_conditions":[7.4961395E0,5.093019E0,1.3055325E1,3E-2,6E-2,3.2E-1,1.6339628E1,-1.4439454E-2,-7.21369E-3,-3.8626E-3,3.9898604E-3,9.221929E-3,5.2361306E-2,2.590482E-2,5.466308E-2],"split_indices":[6,6,6,4,4,4,6,0,0,0,0,0,0,0,0],"split_type":[0,0,0,0,0,0,0,0,0,0,0,0,0,0,0],"sum_hessian":[1.407E3,9.77E2,4.3E2,4.45E2,5.32E2,3.63E2,6.7E1,1.4E2,3.05E2,4.51E2,8.1E1,3.55E2,8E0,6E1,7E0],"tree_param":{"num_deleted":"0","num_feature":"8","num_nodes":"15","size_leaf_vector":"1"}},{"base_weights":[2.5349646E-3,-1.320561E-1,5.808622E-1,-2.178241E-1,1.0117153E-1,8.437447E-1,3.929773E-1,-1.1939539E-2,-5.126727E-3,-4.811687E-3,6.2618754E-3,2.2172216E-2,6.656702E-2,3.405656E-3,1.7609388E-2],"categories":[],"categories_nodes":[],"categories_segments":[],"categories_sizes":[],"default_left":[0,0,0,0,0,0,0,0,0,0,0,0,0,0,0],"id":71,"left_children":[1,3,5,7,9,11,13,-1,-1,-1,-1,-1,-1,-1,-1],"loss_changes":[1.09672165E2,2.2886002E1,1.28066025E1,7.233963E0,8.113674E0,1.6452095E1,7.8464146E0,0E0,0E0,0E0,0E0,0E0,0E0,0E0,0E0],"parents":[2147483647,0,0,1,1,2,2,3,3,4,4,5,5,6,6],"right_children":[2,4,6,8,10,12,14,-1,-1,-1,-1,-1,-1,-1,-1],"split_conditions":[9.645902E0,6.6180634E0,2.15E1,4.4498906E0,2.5453336E2,1.7E-1,6.92E0,-1.1939539E-2,-5.126727E-3,-4.811687E-3,6.2618754E-3,2.2172216E-2,6.656702E-2,3.405656E-3,1.7609388E-2],"split_indices":[6,6,2,6,7,4,1,0,0,0,0,0,0,0,0],"split_type":[0,0,0,0,0,0,0,0,0,0,0,0,0,0,0],"sum_hessian":[1.407E3,1.142E3,2.65E2,8.35E2,3.07E2,1.09E2,1.56E2,1.93E2,6.42E2,8.7E1,2.2E2,1.01E2,8E0,6.1E1,9.5E1],"tree_param":{"num_deleted":"0","num_feature":"8","num_nodes":"15","size_leaf_vector":"1"}},{"base_weights":[2.523802E-3,-1.2799937E-1,5.633714E-1,-2.4925162E-1,2.8429534E-2,6.729386E-1,1.4047769E-1,-1.220435E-2,-5.8610025E-3,3.903858E-4,3.5040013E-2,1.8920805E-2,4.7016002E-2,7.5771487E-3,-1.6101198E-2],"categories":[],"categories_nodes":[],"categories_segments":[],"categories_sizes":[],"default_left":[0,0,0,0,0,0,0,0,0,0,0,0,0,0,0],"id":72,"left_children":[1,3,5,7,9,11,13,-1,-1,-1,-1,-1,-1,-1,-1],"loss_changes":[1.0314279E2,2.1686773E1,1.2230644E1,5.5081367E0,8.722006E0,9.688332E0,4.0393043E0,0E0,0E0,0E0,0E0,0E0,0E0,0E0,0E0],"parents":[2147483647,0,0,1,1,2,2,3,3,4,4,5,5,6,6],"right_children":[2,4,6,8,10,12,14,-1,-1,-1,-1,-1,-1,-1,-1],"split_conditions":[9.645902E0,5.848404E0,2.4E1,3E-2,2.4E-1,3.9E-1,1.653E1,-1.220435E-2,-5.8610025E-3,3.903858E-4,3.5040013E-2,1.8920805E-2,4.7016002E-2,7.5771487E-3,-1.6101198E-2],"split_indices":[6,6,2,4,4,4,5,0,0,0,0,0,0,0,0],"split_type":[0,0,0,0,0,0,0,0,0,0,0,0,0,0,0],"sum_hessian":[1.407E3,1.142E3,2.65E2,6.43E2,4.99E2,2.1E2,5.5E1,1.83E2,4.6E2,4.93E2,6E0,1.98E2,1.2E1,4.8E1,7E0],"tree_param":{"num_deleted":"0","num_feature":"8","num_nodes":"15","size_leaf_vector":"1"}},{"base_weights":[2.499013E-3,-1.7663735E-1,3.880173E-1,-3.0666023E-1,-9.940621E-2,2.9674676E-1,8.9235246E-1,-2.4217842E-2,-8.644799E-3,-4.667025E-3,1.2753258E-3,8.022676E-3,4.9921688E-2,2.3874177E-2,5.1745802E-2],"categories":[],"categories_nodes":[],"categories_segments":[],"categories_sizes":[],"default_left":[0,0,0,0,0,0,0,0,0,0,0,0,0,0,0],"id":73,"left_children":[1,3,5,7,9,11,13,-1,-1,-1,-1,-1,-1,-1,-1],"loss_changes":[9.73055E1,9.629744E0,2.0311028E1,4.270893E0,4.4362664E0,1.7906208E1,4.998436E0,0E0,0E0,0E0,0E0,0E0,0E0,0E0,0E0],"parents":[2147483647,0,0,1,1,2,2,3,3,4,4,5,5,6,6],"right_children":[2,4,6,8,10,12,14,-1,-1,-1,-1,-1,-1,-1,-1],"split_conditions":[7.377446E0,4.8744283E0,1.3055325E1,3.2000182E0,5E-2,3.2E-1,1.6339628E1,-2.4217842E-2,-8.644799E-3,-4.667025E-3,1.2753258E-3,8.022676E-3,4.9921688E-2,2.3874177E-2,5.1745802E-2],"split_indices":[6,6,6,6,4,4,6,0,0,0,0,0,0,0,0],"split_type":[0,0,0,0,0,0,0,0,0,0,0,0,0,0,0],"sum_hessian":[1.407E3,9.61E2,4.46E2,3.57E2,6.04E2,3.79E2,6.7E1,1.7E1,3.4E2,4.41E2,1.63E2,3.7E2,9E0,6E1,7E0],"tree_param":{"num_deleted":"0","num_feature":"8","num_nodes":"15","size_leaf_vector":"1"}},{"base_weights":[2.491021E-3,-1.2083248E-1,5.324018E-1,-2.0331928E-1,8.300112E-2,7.840992E-1,3.5266224E-1,-1.1897008E-2,-4.9873455E-3,-3.0462597E-2,3.2637967E-3,2.049467E-2,6.310981E-2,3.4113765E-2,8.884922E-3],"categories":[],"categories_nodes":[],"categories_segments":[],"categories_sizes":[],"default_left":[0,0,0,0,0,0,0,0,0,0,0,0,0,0,0],"id":74,"left_children":[1,3,5,7,9,11,13,-1,-1,-1,-1,-1,-1,-1,-1],"loss_changes":[9.207777E1,1.9234798E1,1.1757317E1,6.109646E0,8.197157E0,1.5200279E1,7.305647E0,0E0,0E0,0E0,0E0,0E0,0E0,0E0,0E0],"parents":[2147483647,0,0,1,1,2,2,3,3,4,4,5,5,6,6],"right_children":[2,4,6,8,10,12,14,-1,-1,-1,-1,-1,-1,-1,-1],"split_conditions":[9.645902E0,6.526055E0,2.15E1,4.3483367E0,5.7E-1,1.7E-1,8.8E-1,-1.1897008E-2,-4.9873455E-3,-3.0462597E-2,3.2637967E-3,2.049467E-2,6.310981E-2,3.4113765E-2,8.884922E-3],"split_indices":[6,6,2,6,0,4,0,0,0,0,0,0,0,0,0],"split_type":[0,0,0,0,0,0,0,0,0,0,0,0,0,0,0],"sum_hessian":[1.407E3,1.142E3,2.65E2,8.13E2,3.29E2,1.09E2,1.56E2,1.49E2,6.64E2,6E0,3.23E2,1.01E2,8E0,1.1E1,1.45E2],"tree_param":{"num_deleted":"0","num_feature":"8","num_nodes":"15","size_leaf_vector":"1"}},{"base_weights":[2.472779E-3,-1.17146775E-1,5.164678E-1,-2.2833398E-1,2.629665E-2,6.914342E-1,2.7344748E-1,-1.1365347E-2,-5.2952142E-3,4.5781644E-4,4.443144E-2,1.3065595E-2,2.8775714E-2,-2.2993822E-2,1.0405139E-2],"categories":[],"categories_nodes":[],"categories_segments":[],"categories_sizes":[],"default_left":[0,0,0,0,0,0,0,0,0,0,0,0,0,0,0],"id":75,"left_children":[1,3,5,7,9,11,13,-1,-1,-1,-1,-1,-1,-1,-1],"loss_changes":[8.6629776E1,1.8235796E1,1.1121353E1,5.0486183E0,8.076036E0,9.581589E0,7.6405115E0,0E0,0E0,0E0,0E0,0E0,0E0,0E0,0E0],"parents":[2147483647,0,0,1,1,2,2,3,3,4,4,5,5,6,6],"right_children":[2,4,6,8,10,12,14,-1,-1,-1,-1,-1,-1,-1,-1],"split_conditions":[9.645902E0,5.848404E0,2.3E1,3E-2,3E-1,7.5311554E2,2.3267499E2,-1.1365347E-2,-5.2952142E-3,4.5781644E-4,4.443144E-2,1.3065595E-2,2.8775714E-2,-2.2993822E-2,1.0405139E-2],"split_indices":[6,6,2,4,4,7,3,0,0,0,0,0,0,0,0],"split_type":[0,0,0,0,0,0,0,0,0,0,0,0,0,0,0],"sum_hessian":[1.407E3,1.142E3,2.65E2,6.43E2,4.99E2,1.53E2,1.12E2,1.83E2,4.6E2,4.96E2,3E0,7.4E1,7.9E1,6E0,1.06E2],"tree_param":{"num_deleted":"0","num_feature":"8","num_nodes":"15","size_leaf_vector":"1"}},{"base_weights":[2.4373934E-3,-1.5754692E-1,3.6545882E-1,-2.8216985E-1,-8.544943E-2,2.785018E-1,8.2556003E-1,-2.292924E-2,-7.92034E-3,-4.135079E-3,1.2780195E-3,7.582206E-3,4.725852E-2,3.739759E-3,2.8693266E-2],"categories":[],"categories_nodes":[],"categories_segments":[],"categories_sizes":[],"default_left":[0,0,0,0,0,0,0,0,0,0,0,0,0,0,0],"id":76,"left_children":[1,3,5,7,9,11,13,-1,-1,-1,-1,-1,-1,-1,-1],"loss_changes":[8.1831024E1,8.763218E0,1.701397E1,3.9747753E0,3.8445306E0,1.4468342E1,4.932846E0,0E0,0E0,0E0,0E0,0E0,0E0,0E0,0E0],"parents":[2147483647,0,0,1,1,2,2,3,3,4,4,5,5,6,6],"right_children":[2,4,6,8,10,12,14,-1,-1,-1,-1,-1,-1,-1,-1],"split_conditions":[7.4961395E0,4.8744283E0,1.3055325E1,3.2000182E0,5E-2,3.2E-1,1.9550404E2,-2.292924E-2,-7.92034E-3,-4.135079E-3,1.2780195E-3,7.582206E-3,4.725852E-2,3.739759E-3,2.8693266E-2],"split_indices":[6,6,6,6,4,4,3,0,0,0,0,0,0,0,0],"split_type":[0,0,0,0,0,0,0,0,0,0,0,0,0,0,0],"sum_hessian":[1.407E3,9.77E2,4.3E2,3.57E2,6.2E2,3.63E2,6.7E1,1.7E1,3.4E2,4.48E2,1.72E2,3.55E2,8E0,9E0,5.8E1],"tree_param":{"num_deleted":"0","num_feature":"8","num_nodes":"15","size_leaf_vector":"1"}},{"base_weights":[2.4002334E-3,-1.17555566E-1,4.5928854E-1,-2.1523678E-1,1.5688118E-2,7.013286E-1,2.920768E-1,-2.0437669E-2,-6.112987E-3,-4.8802E-4,1.7205717E-2,1.8318726E-2,5.988726E-2,3.2402776E-2,7.080942E-3],"categories":[],"categories_nodes":[],"categories_segments":[],"categories_sizes":[],"default_left":[0,0,0,0,0,0,0,0,0,0,0,0,0,0,0],"id":77,"left_children":[1,3,5,7,9,11,13,-1,-1,-1,-1,-1,-1,-1,-1],"loss_changes":[7.7221405E1,1.4528567E1,1.1653435E1,4.744467E0,8.097875E0,1.465432E1,8.04125E0,0E0,0E0,0E0,0E0,0E0,0E0,0E0,0E0],"parents":[2147483647,0,0,1,1,2,2,3,3,4,4,5,5,6,6],"right_children":[2,4,6,8,10,12,14,-1,-1,-1,-1,-1,-1,-1,-1],"split_conditions":[9.299078E0,5.848404E0,2.15E1,3.545264E0,1.2E-1,1.7E-1,8.8E-1,-2.0437669E-2,-6.112987E-3,-4.8802E-4,1.7205717E-2,1.8318726E-2,5.988726E-2,3.2402776E-2,7.080942E-3],"split_indices":[6,6,2,6,4,4,0,0,0,0,0,0,0,0,0],"split_type":[0,0,0,0,0,0,0,0,0,0,0,0,0,0,0],"sum_hessian":[1.407E3,1.115E3,2.92E2,6.43E2,4.72E2,1.18E2,1.74E2,2.2E1,6.21E2,4.47E2,2.5E1,1.1E2,8E0,1.2E1,1.62E2],"tree_param":{"num_deleted":"0","num_feature":"8","num_nodes":"15","size_leaf_vector":"1"}},{"base_weights":[2.4027913E-3,-1.0726392E-1,4.736308E-1,-1.7765713E-1,8.415162E-2,5.7336795E-1,8.937776E-2,-1.3215603E-2,-4.6731764E-3,-4.9150144E-3,5.5719144E-3,1.493627E-2,3.197877E-2,5.9936964E-3,-1.7427644E-2],"categories":[],"categories_nodes":[],"categories_segments":[],"categories_sizes":[],"default_left":[0,0,0,0,0,0,0,0,0,0,0,0,0,0,0],"id":78,"left_children":[1,3,5,7,9,11,13,-1,-1,-1,-1,-1,-1,-1,-1],"loss_changes":[7.281347E1,1.5416138E1,1.0143013E1,5.4015503E0,7.278876E0,8.191437E0,3.9632158E0,0E0,0E0,0E0,0E0,0E0,0E0,0E0,0E0],"parents":[2147483647,0,0,1,1,2,2,3,3,4,4,5,5,6,6],"right_children":[2,4,6,8,10,12,14,-1,-1,-1,-1,-1,-1,-1,-1],"split_conditions":[9.645902E0,6.6180634E0,2.4E1,4.0792184E0,2.5453336E2,1.43692255E1,1.653E1,-1.3215603E-2,-4.6731764E-3,-4.9150144E-3,5.5719144E-3,1.493627E-2,3.197877E-2,5.9936964E-3,-1.7427644E-2],"split_indices":[6,6,2,6,7,6,5,0,0,0,0,0,0,0,0],"split_type":[0,0,0,0,0,0,0,0,0,0,0,0,0,0,0],"sum_hessian":[1.407E3,1.142E3,2.65E2,8.35E2,3.07E2,2.1E2,5.5E1,7.7E1,7.58E2,8.7E1,2.2E2,1.78E2,3.2E1,4.8E1,7E0],"tree_param":{"num_deleted":"0","num_feature":"8","num_nodes":"15","size_leaf_vector":"1"}},{"base_weights":[2.3415692E-3,-1.5472963E-1,3.121712E-1,-2.785721E-1,-9.83372E-2,4.3818367E-1,2.607342E-2,-6.183588E-3,-1.3581269E-2,-6.447349E-3,-1.7324027E-3,8.899239E-3,2.1887662E-2,-1.5802515E-3,1.5901174E-2],"categories":[],"categories_nodes":[],"categories_segments":[],"categories_sizes":[],"default_left":[0,0,0,0,0,0,0,0,0,0,0,0,0,0,0],"id":79,"left_children":[1,3,5,7,9,11,13,-1,-1,-1,-1,-1,-1,-1,-1],"loss_changes":[6.856906E1,6.5024376E0,1.7077171E1,3.6003666E0,2.9956255E0,1.3166622E1,5.5576286E0,0E0,0E0,0E0,0E0,0E0,0E0,0E0,0E0],"parents":[2147483647,0,0,1,1,2,2,3,3,4,4,5,5,6,6],"right_children":[2,4,6,8,10,12,14,-1,-1,-1,-1,-1,-1,-1,-1],"split_conditions":[7.1535516E0,4.6895456E0,2.4E1,2.6952356E2,1.45E1,3.61E0,2.5E-1,-6.183588E-3,-1.3581269E-2,-6.447349E-3,-1.7324027E-3,8.899239E-3,2.1887662E-2,-1.5802515E-3,1.5901174E-2],"split_indices":[6,6,2,3,2,0,4,0,0,0,0,0,0,0,0],"split_type":[0,0,0,0,0,0,0,0,0,0,0,0,0,0,0],"sum_hessian":[1.407E3,9.34E2,4.73E2,2.91E2,6.43E2,3.28E2,1.45E2,1.98E2,9.3E1,1.76E2,4.67E2,2.13E2,1.15E2,1.26E2,1.9E1],"tree_param":{"num_deleted":"0","num_feature":"8","num_nodes":"15","size_leaf_vector":"1"}},{"base_weights":[2.2815024E-3,-1.01179E-1,4.4684196E-1,-1.9740063E-1,2.2956807E-2,6.733772E-1,2.8527686E-1,-1.0180183E-2,-4.436339E-3,3.720835E-4,4.221609E-2,1.7347893E-2,5.7062518E-2,2.3358764E-2,5.8572134E-3],"categories":[],"categories_nodes":[],"categories_segments":[],"categories_sizes":[],"default_left":[0,0,0,0,0,0,0,0,0,0,0,0,0,0,0],"id":80,"left_children":[1,3,5,7,9,11,13,-1,-1,-1,-1,-1,-1,-1,-1],"loss_changes":[6.48054E1,1.3657151E1,9.543552E0,4.5281525E0,7.3128414E0,1.3281349E1,6.922637E0,0E0,0E0,0E0,0E0,0E0,0E0,0E0,0E0],"parents":[2147483647,0,0,1,1,2,2,3,3,4,4,5,5,6,6],"right_children":[2,4,6,8,10,12,14,-1,-1,-1,-1,-1,-1,-1,-1],"split_conditions":[9.645902E0,5.848404E0,2.15E1,3E-2,3E-1,1.7E-1,2.8082315E2,-1.0180183E-2,-4.436339E-3,3.720835E-4,4.221609E-2,1.7347893E-2,5.7062518E-2,2.3358764E-2,5.8572134E-3],"split_indices":[6,6,2,4,4,4,7,0,0,0,0,0,0,0,0],"split_type":[0,0,0,0,0,0,0,0,0,0,0,0,0,0,0],"sum_hessian":[1.407E3,1.142E3,2.65E2,6.43E2,4.99E2,1.09E2,1.56E2,1.83E2,4.6E2,4.96E2,3E0,1.01E2,8E0,2.5E1,1.31E2],"tree_param":{"num_deleted":"0","num_feature":"8","num_nodes":"15","size_leaf_vector":"1"}},{"base_weights":[2.3046813E-3,-1.4597584E-1,2.947941E-1,-2.637243E-1,-9.236012E-2,4.1493523E-1,2.2046002E-2,1.781094E-2,-8.550683E-3,-6.161741E-3,-1.5869121E-3,8.273696E-3,2.0688277E-2,-1.6177914E-3,1.5233374E-2],"categories":[],"categories_nodes":[],"categories_segments":[],"categories_sizes":[],"default_left":[0,0,0,0,0,0,0,0,0,0,0,0,0,0,0],"id":81,"left_children":[1,3,5,7,9,11,13,-1,-1,-1,-1,-1,-1,-1,-1],"loss_changes":[6.1108677E1,5.878456E0,1.552301E1,3.5257874E0,2.8207974E0,1.2172237E1,5.1642566E0,0E0,0E0,0E0,0E0,0E0,0E0,0E0,0E0],"parents":[2147483647,0,0,1,1,2,2,3,3,4,4,5,5,6,6],"right_children":[2,4,6,8,10,12,14,-1,-1,-1,-1,-1,-1,-1,-1],"split_conditions":[7.1535516E0,4.6895456E0,2.4E1,6.75E0,1.45E1,3.52E0,2.5E-1,1.781094E-2,-8.550683E-3,-6.161741E-3,-1.5869121E-3,8.273696E-3,2.0688277E-2,-1.6177914E-3,1.5233374E-2],"split_indices":[6,6,2,1,2,0,4,0,0,0,0,0,0,0,0],"split_type":[0,0,0,0,0,0,0,0,0,0,0,0,0,0,0],"sum_hessian":[1.407E3,9.34E2,4.73E2,2.91E2,6.43E2,3.28E2,1.45E2,4E0,2.87E2,1.76E2,4.67E2,2.1E2,1.18E2,1.26E2,1.9E1],"tree_param":{"num_deleted":"0","num_feature":"8","num_nodes":"15","size_leaf_vector":"1"}},{"base_weights":[2.264913E-3,-9.535702E-2,4.2173713E-1,-1.5793313E-1,7.480201E-2,3.6185622E-1,1.010459E0,-1.4009023E-2,-4.2685266E-3,-4.7821626E-3,5.117394E-3,1.01997685E-2,3.788563E-2,3.5391375E-2,7.928535E-3],"categories":[],"categories_nodes":[],"categories_segments":[],"categories_sizes":[],"default_left":[0,0,0,0,0,0,0,0,0,0,0,0,0,0,0],"id":82,"left_children":[1,3,5,7,9,11,13,-1,-1,-1,-1,-1,-1,-1,-1],"loss_changes":[5.7697376E1,1.2182352E1,9.011711E0,4.7581005E0,6.4870453E0,6.1126995E0,2.1953926E0,0E0,0E0,0E0,0E0,0E0,0E0,0E0,0E0],"parents":[2147483647,0,0,1,1,2,2,3,3,4,4,5,5,6,6],"right_children":[2,4,6,8,10,12,14,-1,-1,-1,-1,-1,-1,-1,-1],"split_conditions":[9.645902E0,6.6180634E0,1.49031925E1,3.9629657E0,2.5453336E2,3.9E-1,3.51E1,-1.4009023E-2,-4.2685266E-3,-4.7821626E-3,5.117394E-3,1.01997685E-2,3.788563E-2,3.5391375E-2,7.928535E-3],"split_indices":[6,6,6,6,7,4,0,0,0,0,0,0,0,0,0],"split_type":[0,0,0,0,0,0,0,0,0,0,0,0,0,0,0],"sum_hessian":[1.407E3,1.142E3,2.65E2,8.35E2,3.07E2,2.42E2,2.3E1,5E1,7.85E2,8.7E1,2.2E2,2.35E2,7E0,1.9E1,4E0],"tree_param":{"num_deleted":"0","num_feature":"8","num_nodes":"15","size_leaf_vector":"1"}},{"base_weights":[2.2473654E-3,-9.2433535E-2,4.0908203E-1,-1.9229619E-1,9.709662E-3,6.275231E-1,2.5342852E-1,-2.007292E-2,-5.46255E-3,-2.895304E-3,5.1180855E-3,1.6878488E-2,6.76925E-2,-2.2546801E-4,1.2920229E-2],"categories":[],"categories_nodes":[],"categories_segments":[],"categories_sizes":[],"default_left":[0,0,0,0,0,0,0,0,0,0,0,0,0,0,0],"id":83,"left_children":[1,3,5,7,9,11,13,-1,-1,-1,-1,-1,-1,-1,-1],"loss_changes":[5.427323E1,1.1660802E1,8.885265E0,3.8818703E0,9.187135E0,1.2587296E1,6.78862E0,0E0,0E0,0E0,0E0,0E0,0E0,0E0,0E0],"parents":[2147483647,0,0,1,1,2,2,3,3,4,4,5,5,6,6],"right_children":[2,4,6,8,10,12,14,-1,-1,-1,-1,-1,-1,-1,-1],"split_conditions":[9.645902E0,5.514803E0,2.15E1,3.2000182E0,5E-2,1.46E1,6.92E0,-2.007292E-2,-5.46255E-3,-2.895304E-3,5.1180855E-3,1.6878488E-2,6.76925E-2,-2.2546801E-4,1.2920229E-2],"split_indices":[6,6,2,6,4,0,1,0,0,0,0,0,0,0,0],"split_type":[0,0,0,0,0,0,0,0,0,0,0,0,0,0,0],"sum_hessian":[1.407E3,1.142E3,2.65E2,5.77E2,5.65E2,1.09E2,1.56E2,1.7E1,5.6E2,3.4E2,2.25E2,1.05E2,4E0,6.1E1,9.5E1],"tree_param":{"num_deleted":"0","num_feature":"8","num_nodes":"15","size_leaf_vector":"1"}},{"base_weights":[2.2306775E-3,-1.3348554E-1,2.6993623E-1,-2.4334763E-1,-8.346501E-2,3.8327715E-1,1.2682111E-2,1.7611716E-2,-7.910446E-3,-5.7716393E-3,-1.3571782E-3,-3.9493386E-3,1.3824318E-2,-1.7941342E-3,1.4246255E-2],"categories":[],"categories_nodes":[],"categories_segments":[],"categories_sizes":[],"default_left":[0,0,0,0,0,0,0,0,0,0,0,0,0,0,0],"id":84,"left_children":[1,3,5,7,9,11,13,-1,-1,-1,-1,-1,-1,-1,-1],"loss_changes":[5.1191463E1,5.1178493E0,1.3815758E1,3.3107681E0,2.6274767E0,1.1034485E1,4.679544E0,0E0,0E0,0E0,0E0,0E0,0E0,0E0,0E0],"parents":[2147483647,0,0,1,1,2,2,3,3,4,4,5,5,6,6],"right_children":[2,4,6,8,10,12,14,-1,-1,-1,-1,-1,-1,-1,-1],"split_conditions":[7.1535516E0,4.6895456E0,2.4E1,6.75E0,1.45E1,1.65E1,2.5E-1,1.7611716E-2,-7.910446E-3,-5.7716393E-3,-1.3571782E-3,-3.9493386E-3,1.3824318E-2,-1.7941342E-3,1.4246255E-2],"split_indices":[6,6,2,1,2,2,4,0,0,0,0,0,0,0,0],"split_type":[0,0,0,0,0,0,0,0,0,0,0,0,0,0,0],"sum_hessian":[1.407E3,9.34E2,4.73E2,2.91E2,6.43E2,3.28E2,1.45E2,4E0,2.87E2,1.76E2,4.67E2,3.7E1,2.91E2,1.26E2,1.9E1],"tree_param":{"num_deleted":"0","num_feature":"8","num_nodes":"15","size_leaf_vector":"1"}},{"base_weights":[2.1795002E-3,-8.703489E-2,3.8552487E-1,-1.8121797E-1,9.298772E-3,3.5248408E-1,1.40703E0,4.8176423E-3,-6.163848E-3,-2.759263E-3,4.8811026E-3,1.7043877E-2,6.540346E-3,1.140607E-2,5.212068E-2],"categories":[],"categories_nodes":[],"categories_segments":[],"categories_sizes":[],"default_left":[0,0,0,0,0,